{
  "version": "TurboThinker UltraBrain v5.0 • local ensemble recognition brain • no API",
  "model_type": "local_ensemble_logistic_prototype_knn_cooccurrence",
  "created_at": "2026-06-17T04:52:08+00:00",
  "trained_from_filename": false,
  "source_name_used_for_label": false,
  "note": "UltraBrain trains from visual features, seed-bank pseudo labels, and user corrections. User corrections should be preferred over auto labels.",
  "feature_count": 19,
  "augmented_feature_count": 89,
  "output_labels": [
    "multi_design_preview",
    "heavy_work",
    "all_over_design",
    "front_neck",
    "back_neck",
    "boat_neck",
    "pot_neck",
    "v_neck_designs",
    "short_hand",
    "full_hand",
    "hand_design",
    "sleeve_panel",
    "cut_work",
    "net_work",
    "butti",
    "border",
    "flower_border",
    "flowers",
    "rangoli_design",
    "stitched_photo_reference",
    "back_drop_neck",
    "one_side_design",
    "mango",
    "mirror_designs",
    "peacock_parrot",
    "lotus_roses",
    "saree_pallus",
    "simple_designs",
    "kutch_work",
    "latkans",
    "3d_emboss",
    "double_shoulder_neck_designs",
    "different_front_blouses",
    "heavy_outline"
  ],
  "standardization": {
    "means": [
      0.3421764,
      24458154,
      0.4120052,
      0.9708337,
      0.6283961,
      0.1519888,
      0.2972852,
      0.6323992,
      0.6702666,
      0.698073,
      0.2642053,
      0.1095673,
      0.4316821,
      0.11811,
      0.178448,
      0.273897,
      0.2070144,
      24115922,
      24135653,
      0.153673,
      0.3074994,
      0.1806816,
      0.9517383,
      0.4762199,
      0.0240924,
      0.1761008,
      0.4767798,
      0.4605227,
      0.4973438,
      0.1201935,
      0.0201993,
      0.2034618,
      0.0199467,
      0.0386261,
      0.0866005,
      0.052648,
      0.2646641,
      0.2655297,
      24624485,
      0.7357695,
      0.636682,
      0.9817729,
      0.763772,
      0.3878103,
      24022593,
      0.7720367,
      0.8161986,
      0.8333814,
      0.4597616,
      0.3029578,
      0.6492619,
      0.3254547,
      0.4117056,
      24136628,
      0.4407647,
      0.7142597,
      0.716079,
      0.1822113,
      0.3307685,
      0.0541283,
      0.083992,
      24307331,
      0.1647663,
      0.3636578,
      0.1472466,
      0.289655,
      0.2585506,
      0.2135561,
      0.1034407,
      0.1074424,
      0.1914753,
      0.1518124,
      0.1517622,
      0.4761599,
      0.0260972,
      0.0650108,
      0.2625187,
      0.7541817,
      0.083992,
      0.1236356,
      0.1472466,
      0.0932197,
      0.0550708,
      0.076549,
      0.2806381,
      24401141,
      0.6841698,
      0.0812355,
      0.0525577
    ],
    "stds": [
      0.1912805,
      0.0979026,
      0.1045627,
      0.0960225,
      0.2851986,
      0.0314925,
      0.2961795,
      0.2772202,
      0.1061385,
      0.1001891,
      0.2244752,
      0.0905222,
      0.1308142,
      0.0774383,
      0.0823552,
      0.1076147,
      0.0989596,
      0.0541993,
      0.0421942,
      0.1677512,
      0.1082509,
      0.0910587,
      0.1271389,
      0.3116199,
      0.0101992,
      0.3400511,
      0.3409195,
      0.150496,
      0.1448137,
      0.1809711,
      0.0320865,
      0.1228998,
      0.0277437,
      0.038925,
      0.0714486,
      0.0459495,
      0.0567929,
      0.0479944,
      0.1607113,
      0.0667728,
      0.0814935,
      0.0834005,
      0.2122464,
      0.039899,
      0.212181,
      0.1906792,
      0.0639256,
      0.059568,
      0.2298361,
      0.1333562,
      0.1007029,
      0.1104048,
      0.0945858,
      0.1002375,
      0.1128756,
      0.0377529,
      0.0282164,
      0.1048615,
      0.1883876,
      0.0352686,
      0.0653081,
      0.1073599,
      0.1747475,
      0.0786023,
      0.0337052,
      0.2917218,
      0.2213559,
      0.2014001,
      0.0328691,
      0.0320334,
      0.2301868,
      0.1523235,
      0.1501033,
      0.1399746,
      0.0310908,
      0.0537988,
      0.0342077,
      0.2829414,
      0.0653081,
      0.1277086,
      0.0337052,
      0.0446504,
      0.0460821,
      0.0583573,
      0.1049958,
      0.0451835,
      0.0972537,
      0.0532643,
      0.0662082
    ]
  },
  "label_models": {
    "multi_design_preview": {
      "weights": [
        0.251662,
        0.1859069,
        0.4790205,
        0.135033,
        -1.0948518,
        -0.395275,
        0.3028227,
        -0.1679237,
        -0.0241609,
        -0.1373192,
        -0.1209605,
        0.2273128,
        -0.2987764,
        0.2605983,
        -0.1338867,
        -0.0221804,
        0.1534023,
        -0.0246522,
        -0.1769279,
        -0.3085188,
        -0.1003725,
        24398161,
        0.483752,
        0.8549178,
        -0.0220028,
        0.2504332,
        1.0691784,
        0.6717826,
        0.1876115,
        -0.2213077,
        -0.3117143,
        0.8264498,
        -1.4055587,
        -0.241993,
        0.0779026,
        0.8029627,
        0.1730937,
        -0.4818895,
        0.4365719,
        0.4444649,
        0.4781969,
        -0.6056248,
        -2.2682095,
        -0.7610059,
        0.3517063,
        -1.2113623,
        -0.3806545,
        -0.321783,
        -1.3018843,
        -0.1802749,
        -0.9109304,
        0.8741051,
        0.2830246,
        -0.1379019,
        -243734,
        -0.1418491,
        -0.0312327,
        -24301829,
        -0.4280205,
        0.0239223,
        0.3867977,
        -2466754,
        0.3351667,
        -0.0549998,
        -0.0518044,
        0.2668934,
        0.089302,
        0.7473886,
        0.394012,
        -0.0058988,
        0.2482395,
        0.2921664,
        0.2949536,
        0.2894657,
        -0.6033346,
        0.4640663,
        -0.2908581,
        0.3473836,
        0.387354,
        0.3512585,
        -0.051388,
        1.8219842,
        0.4869567,
        -0.0315227,
        0.0947887,
        0.1506319,
        -0.0839674,
        -0.1802881,
        0.1841145
      ],
      "bias": 1.796232,
      "positive_count": 1203,
      "training_stats": {
        "positive": 1203,
        "negative": 737,
        "loss": 0.208544
      },
      "threshold": 0.42
    },
    "heavy_work": {
      "weights": [
        -0.030035,
        -0.8219901,
        0.1910531,
        0.370199,
        0.3798925,
        0.2092828,
        -0.0707161,
        0.8636323,
        24088768,
        24393936,
        0.7590754,
        -0.1003693,
        0.4500163,
        0.1540089,
        0.0512328,
        0.410467,
        0.1355718,
        0.0698694,
        -0.2936143,
        0.0364181,
        -0.8982606,
        0.1864802,
        0.6546434,
        1.3376872,
        0.1324937,
        -0.0737392,
        1.2069172,
        24886391,
        0.4608975,
        0.6104013,
        -0.0652712,
        24061041,
        0.1518925,
        0.1665571,
        0.186331,
        0.0685171,
        0.1227268,
        -0.2585881,
        -0.0964409,
        -0.770992,
        0.1790766,
        0.1630202,
        -0.2717557,
        0.2448935,
        -0.0691771,
        24451222,
        0.4393565,
        24831772,
        0.3540819,
        -0.0846368,
        0.3171623,
        -0.3693349,
        -0.1570064,
        24475812,
        0.1038796,
        0.0376268,
        -0.308115,
        -0.1150462,
        -0.0179293,
        0.0093672,
        0.2866323,
        -0.4307919,
        -0.3146672,
        -0.0439052,
        0.2177009,
        0.0787104,
        0.6341271,
        1.1391434,
        0.3680262,
        0.3241448,
        0.2170764,
        -0.0141527,
        -0.1356993,
        0.6110259,
        0.1349861,
        0.1193021,
        -0.1480641,
        0.0506718,
        0.2865708,
        0.1091848,
        0.2182574,
        0.0063122,
        -0.2263212,
        0.0814333,
        0.4693449,
        -0.2099639,
        24550603,
        0.6674776,
        0.1053343
      ],
      "bias": 20.3709761,
      "positive_count": 1923,
      "training_stats": {
        "positive": 1923,
        "negative": 17,
        "loss": 0.004838
      },
      "threshold": 0.42
    },
    "all_over_design": {
      "weights": [
        -0.0591206,
        0.0263748,
        -0.1195703,
        -24418035,
        1.216228,
        0.2859382,
        -0.0996239,
        0.9521312,
        0.18246,
        -0.6922777,
        0.3878533,
        0.3365957,
        1.0097152,
        0.3624557,
        0.3499865,
        0.7273205,
        0.8450885,
        0.0378486,
        -0.0187766,
        -0.0697965,
        0.1614678,
        -0.0831845,
        -0.7535712,
        2.401479,
        0.4364739,
        -0.1841156,
        1.0230879,
        0.3997838,
        -0.7235101,
        0.0413032,
        -0.1272447,
        1.6327944,
        0.1914545,
        0.3399751,
        0.4125683,
        0.6016035,
        0.0495601,
        0.1285971,
        -0.1034311,
        -0.0333973,
        -0.1497443,
        -0.2905406,
        0.1474904,
        0.1537642,
        -0.0616799,
        0.7546531,
        0.0381122,
        -0.6509007,
        0.1363494,
        0.8019618,
        0.4886127,
        0.1165963,
        0.0475276,
        0.8098698,
        0.8227008,
        0.0324113,
        -0.0934005,
        0.1143664,
        -0.0136902,
        0.2440082,
        24476958,
        -0.0775695,
        -0.0651806,
        -0.0103318,
        0.1398476,
        -0.1534865,
        0.2749987,
        0.8687437,
        24879586,
        0.0078459,
        -0.2922977,
        -0.0178012,
        -0.1183928,
        -0.0354745,
        0.080174,
        0.7553163,
        0.009593,
        -0.0842536,
        24468895,
        -0.0606265,
        0.1400752,
        -0.1106938,
        -2401476,
        -0.9622862,
        0.040416,
        -0.2422224,
        -0.2561765,
        0.4076754,
        -0.0100233
      ],
      "bias": 13.019217,
      "positive_count": 1834,
      "training_stats": {
        "positive": 1834,
        "negative": 106,
        "loss": 0.037571
      },
      "threshold": 0.42
    },
    "front_neck": {
      "weights": [
        0.2241576,
        -0.437613,
        0.0759583,
        -0.4195092,
        -0.66558,
        0.3084053,
        -0.0186419,
        0.334939,
        -0.6362147,
        0.625696,
        0.0748762,
        -2.8940773,
        0.290343,
        1.5629188,
        -0.485832,
        -0.2397018,
        -0.3769239,
        -0.0741295,
        -0.0129137,
        1.654345,
        -0.6523171,
        0.6447432,
        -24775463,
        0.2009829,
        0.2525991,
        -0.0359386,
        0.8291117,
        -0.6515438,
        1.5599343,
        -1.0626121,
        -24367223,
        1.4453974,
        0.9280572,
        0.4581157,
        -0.0641285,
        0.2575864,
        -0.1495948,
        -0.7464475,
        -24222631,
        -0.3536664,
        -0.1432396,
        -0.2590673,
        -1.2546847,
        0.3557508,
        -0.0038781,
        -0.052424,
        -0.6323081,
        0.1311806,
        -0.1515081,
        -4.3635535,
        -0.4548579,
        2.055103,
        -0.7916796,
        -0.333982,
        -0.9616573,
        -0.0309965,
        0.3832282,
        -0.1224808,
        0.08366,
        0.2900046,
        -0.0055146,
        -24329992,
        0.1329012,
        0.3769431,
        0.0723919,
        -0.1086539,
        0.2565021,
        0.4582161,
        -0.6712591,
        24667159,
        0.0851504,
        -0.2955294,
        1.3729435,
        0.3688036,
        0.7523761,
        0.9290155,
        -0.7549978,
        0.1799947,
        -0.0060655,
        -0.3946088,
        0.0721186,
        0.3225024,
        0.0993259,
        0.0417762,
        -0.7618376,
        -6.5e-06,
        -0.0248348,
        0.2323405,
        0.0396031
      ],
      "bias": 4.6301845,
      "positive_count": 1747,
      "training_stats": {
        "positive": 1747,
        "negative": 193,
        "loss": 0.129071
      },
      "threshold": 0.42
    },
    "back_neck": {
      "weights": [
        -1.6080635,
        -0.7840618,
        -1.1903991,
        -0.0031694,
        -0.4108838,
        -0.20352,
        -0.4737737,
        0.0354797,
        0.8441758,
        0.1405732,
        0.218003,
        -0.0298094,
        0.3415101,
        0.2690591,
        0.4463324,
        -0.1991496,
        0.4797038,
        -0.678117,
        1.1751087,
        -0.8198522,
        -0.3482875,
        -0.9024987,
        0.4129215,
        -0.9080438,
        -24892136,
        -0.461061,
        -0.0476866,
        0.2178894,
        -0.0300075,
        0.4310878,
        -1.094201,
        -0.9875489,
        1.7188762,
        0.4746209,
        -0.6923133,
        -0.2182359,
        -0.6071866,
        0.9191884,
        -2.1300932,
        -0.9750211,
        -1.373996,
        0.1653573,
        0.0785971,
        -0.0321975,
        -0.4868682,
        0.3138332,
        1.1558694,
        0.1695271,
        24134764,
        -0.0025563,
        1.0914132,
        -0.4559784,
        0.6055884,
        0.0817902,
        0.7227559,
        -0.7228322,
        1.2929945,
        -1.8732584,
        -0.9154315,
        -1.2688893,
        -0.9330852,
        -1.3358081,
        -2486619,
        1.1114193,
        0.9234059,
        -0.3766662,
        0.1604446,
        -0.0658507,
        -0.7145715,
        0.0242844,
        -0.3298628,
        -0.413725,
        -0.4760686,
        -0.7698995,
        1.2163605,
        -0.6626225,
        0.3564969,
        -1.5266613,
        -0.9326758,
        -24680449,
        0.9233284,
        0.8979217,
        -24102138,
        -0.680131,
        -0.3028135,
        -0.1186435,
        24333703,
        -1.2441186,
        -0.2181441
      ],
      "bias": -16.4043232,
      "positive_count": 51,
      "training_stats": {
        "positive": 51,
        "negative": 1889,
        "loss": 0.213218
      },
      "threshold": 0.42
    },
    "boat_neck": {
      "weights": [
        0.9212442,
        0.9454453,
        -1.8233545,
        0.0654928,
        0.1287881,
        -0.3181006,
        0.6029388,
        -0.1585025,
        -0.0148826,
        -0.2260369,
        0.0648608,
        -0.3188959,
        0.4606701,
        -0.371102,
        -0.1487786,
        -0.1169078,
        0.277962,
        -0.1582684,
        -0.0571823,
        1.0313151,
        -4.1629738,
        -2.5099841,
        0.2176863,
        0.6931185,
        -1.2676115,
        0.1157876,
        -0.1434295,
        1.1830453,
        0.2940842,
        0.4892356,
        -2.3022191,
        1.4327839,
        -2.4374688,
        0.7708963,
        0.4866839,
        0.0654938,
        0.0632139,
        -0.0145411,
        0.4335916,
        3.3850122,
        -1.4382089,
        0.0098753,
        -0.2559969,
        0.1391137,
        0.8264204,
        -0.294834,
        -0.6695628,
        -0.4537391,
        -0.4765295,
        2.6196383,
        -0.2764154,
        2.7338554,
        -1.1380845,
        -0.6868594,
        0.0254057,
        -0.2740336,
        -0.0807992,
        0.7790036,
        0.8140104,
        0.9264715,
        -0.3921023,
        0.0689936,
        -1.4626337,
        -1.7961243,
        -0.3129798,
        0.3542592,
        -0.1600362,
        0.2706661,
        1.1037732,
        0.7118939,
        -0.2577748,
        0.2164763,
        0.3836491,
        0.6097765,
        0.0252909,
        -0.3144331,
        -0.1112452,
        -0.0506879,
        -0.3926908,
        1.3446407,
        -0.3126432,
        -0.6026181,
        0.3638306,
        -0.1718239,
        -24152337,
        0.0636286,
        -0.1250233,
        -0.2247907,
        0.2245184
      ],
      "bias": 1.2760985,
      "positive_count": 1524,
      "training_stats": {
        "positive": 1524,
        "negative": 416,
        "loss": 0.101706
      },
      "threshold": 0.42
    },
    "pot_neck": {
      "weights": [
        -0.4373222,
        -2.0606172,
        0.7787222,
        0.1698977,
        0.0253748,
        -0.3098971,
        -0.2714914,
        0.0180204,
        0.0693927,
        0.0850402,
        -0.0930438,
        0.0560636,
        -0.1433763,
        2481048,
        0.3798296,
        0.1053435,
        -0.1142939,
        -0.0746018,
        0.0413585,
        -0.3514199,
        -1.5240561,
        0.9747666,
        -0.7691203,
        0.0389241,
        -0.0334535,
        -0.1779014,
        -0.2261636,
        -0.0478379,
        -0.0794612,
        -0.0765122,
        0.6087074,
        0.1834716,
        24580629,
        -0.0185543,
        24341245,
        -0.0345787,
        0.1556913,
        -0.0029239,
        -0.4639547,
        -2.3350647,
        0.6687534,
        1.1097657,
        0.0834033,
        -0.4597528,
        -0.3172165,
        0.4013094,
        0.1260296,
        0.1755062,
        0.0190798,
        -0.3831604,
        -0.3620105,
        0.3937021,
        0.6011825,
        -0.2661316,
        -0.2450756,
        -0.1754077,
        0.0476668,
        -1.0543425,
        24873771,
        -0.3783629,
        0.2865216,
        -1.6853418,
        -0.6074712,
        -1.7081968,
        1.2500284,
        -0.2306884,
        -0.2899689,
        -0.0617807,
        -0.1903823,
        -0.4927795,
        -0.1637509,
        -0.2176448,
        -0.1714142,
        -0.0958698,
        -0.3412943,
        0.3820232,
        0.1453782,
        -0.0081626,
        0.2861671,
        0.1433417,
        1.2492773,
        0.2538492,
        0.1164865,
        0.2762009,
        0.2656778,
        0.0334379,
        0.0810932,
        -0.0428028,
        -0.1999182
      ],
      "bias": -10.7637315,
      "positive_count": 354,
      "training_stats": {
        "positive": 354,
        "negative": 1586,
        "loss": 0.024554
      },
      "threshold": 0.42
    },
    "short_hand": {
      "weights": [
        -0.2836442,
        -1.0213496,
        -2433237,
        0.3671721,
        -24346244,
        -0.0034417,
        -0.0620866,
        -0.0719739,
        0.1466894,
        -0.3351876,
        -0.1311417,
        1.7688381,
        -0.4982513,
        0.0050239,
        0.1005714,
        24255473,
        0.3073663,
        -0.0038191,
        -0.415699,
        0.6651964,
        2.5730072,
        -1.6631709,
        -0.10217,
        -0.8517313,
        0.3700242,
        0.1725775,
        -0.0236162,
        -0.4371265,
        0.1636571,
        -0.358248,
        0.2767684,
        -1.254822,
        0.8115391,
        0.3361026,
        -0.4870978,
        0.8732929,
        -0.2876188,
        -0.4514555,
        -0.7826907,
        -2.5944814,
        0.0478315,
        24657009,
        -0.1545035,
        -0.1131444,
        -0.2491326,
        -0.0730615,
        24570699,
        -0.6195241,
        -0.0071748,
        -1.1484671,
        0.4359966,
        -2.0338265,
        24053683,
        1.4371655,
        0.3020389,
        0.1597911,
        -0.3942963,
        2.0110539,
        0.1176229,
        -1.0452718,
        -1.0601377,
        -0.4765769,
        2.0831085,
        0.8642753,
        -0.1994712,
        0.0936123,
        0.1956528,
        -0.2624608,
        -0.4807691,
        -0.0199054,
        0.0585639,
        -0.2564014,
        0.4351589,
        -0.3284745,
        0.3085915,
        0.306603,
        -0.3542102,
        -0.3883156,
        -1.0599253,
        -1.7702655,
        -0.1992306,
        1.4338288,
        -0.2490751,
        0.149715,
        0.4594719,
        -0.3228616,
        -0.0926114,
        0.7292943,
        0.2341219
      ],
      "bias": -2.5234735,
      "positive_count": 226,
      "training_stats": {
        "positive": 226,
        "negative": 1714,
        "loss": 0.312998
      },
      "threshold": 0.42
    },
    "full_hand": {
      "weights": [
        0.3781546,
        24433854,
        -0.6038582,
        -0.1296154,
        1.5207003,
        0.2551833,
        0.1516506,
        -0.1522511,
        -0.1688059,
        0.1983303,
        0.1074702,
        0.2619501,
        0.3432772,
        -0.2118504,
        0.1776363,
        0.2844936,
        0.0701938,
        -0.23961,
        0.6076247,
        0.0696645,
        24376988,
        -0.8723742,
        -0.149091,
        -0.4347151,
        0.6551688,
        24765178,
        -0.9415362,
        -0.3091284,
        -0.4785808,
        0.6161284,
        -0.0525511,
        -0.6189367,
        1.3418916,
        -0.1344936,
        0.1741675,
        -0.9043322,
        -0.0354054,
        0.6519717,
        0.4986352,
        0.4726051,
        -24167268,
        -0.0085465,
        2.7475016,
        0.1282974,
        -0.0482533,
        0.4615922,
        -0.1024359,
        24936857,
        0.6625893,
        1.0924676,
        0.8518699,
        -1.0425101,
        -0.0404225,
        0.2318382,
        0.4094391,
        -0.3518411,
        2478272,
        0.4044316,
        0.4899842,
        0.1387235,
        -0.2403094,
        0.4200732,
        1.0326701,
        -0.6989927,
        0.1359747,
        0.0556461,
        -0.0708016,
        -0.6859648,
        0.2179186,
        -0.2278057,
        0.7894213,
        -0.1844041,
        -0.1306792,
        0.0198681,
        0.3811392,
        -0.2790081,
        0.3306936,
        0.0327541,
        -0.2406997,
        -1.1052985,
        0.1364039,
        -2.2137072,
        0.0345891,
        0.1650806,
        -0.3180296,
        0.1578044,
        0.0099276,
        0.334863,
        0.0143398
      ],
      "bias": 0.8516314,
      "positive_count": 1180,
      "training_stats": {
        "positive": 1180,
        "negative": 760,
        "loss": 0.17414
      },
      "threshold": 0.42
    },
    "hand_design": {
      "weights": [
        0.2389441,
        -0.1809484,
        -24598607,
        0.1894442,
        -0.1091798,
        -0.0983078,
        0.009194,
        -0.0196487,
        0.039674,
        -0.0987973,
        -0.08399,
        1.0176423,
        0.0538158,
        -0.426639,
        0.0747657,
        0.2434049,
        0.3402555,
        -0.1585907,
        0.2263097,
        0.3238762,
        1.138244,
        -1.3562589,
        -0.2521824,
        -0.1296497,
        0.6598684,
        0.1520667,
        0.1565154,
        -0.1441262,
        0.2418367,
        -0.0262031,
        0.451968,
        0.3187458,
        0.6556004,
        0.2342661,
        -0.3873671,
        -0.48077,
        -0.3590899,
        1.1237153,
        -0.1556935,
        -0.9111294,
        -0.2996451,
        24490769,
        0.1314528,
        -0.600964,
        -0.0928631,
        -0.0561592,
        0.1363332,
        -0.2927335,
        -0.0395083,
        0.4306791,
        -0.1276686,
        -0.9246496,
        -0.167197,
        0.4157733,
        0.4425558,
        -0.0122427,
        -0.2433855,
        1.2012299,
        24951327,
        -0.037772,
        -0.6109155,
        -0.2446903,
        2.7162558,
        -0.027879,
        0.0764762,
        0.1825209,
        0.1043782,
        -0.0285659,
        0.072397,
        -0.0174531,
        0.0827962,
        0.6060529,
        -0.2584909,
        -0.0445546,
        -0.1995654,
        -0.7190155,
        24977696,
        -0.0460065,
        -0.6104557,
        -2.5489103,
        0.0766289,
        0.2508246,
        -0.3824934,
        -0.0460237,
        0.0174958,
        -0.1850262,
        -0.0285242,
        0.170828,
        0.1870459
      ],
      "bias": -0.071314,
      "positive_count": 953,
      "training_stats": {
        "positive": 953,
        "negative": 987,
        "loss": 0.324216
      },
      "threshold": 0.42
    },
    "sleeve_panel": {
      "weights": [
        -0.371739,
        -0.42871,
        -0.7838606,
        0.7221224,
        -0.077017,
        -0.199996,
        -0.3244748,
        -0.1645253,
        -0.0176731,
        0.1956002,
        0.0854806,
        1.5831089,
        -0.0981294,
        0.271871,
        0.0043227,
        0.3586655,
        1.1377564,
        0.8497505,
        -0.4266699,
        -0.1928697,
        -0.1108706,
        -24134408,
        0.8706117,
        -0.4603343,
        -0.2689038,
        -0.2333072,
        -0.2631472,
        -0.6499833,
        -0.0983998,
        0.185033,
        1.5298183,
        -0.7057224,
        -0.2221521,
        -1.0126062,
        -0.025267,
        24091101,
        0.4794853,
        -0.4512728,
        -0.4469853,
        -0.6102209,
        -0.9294952,
        24534334,
        0.2592535,
        -0.1976101,
        -0.3962048,
        -4.6e-06,
        0.3005879,
        0.3332516,
        0.235082,
        1.7690481,
        0.2410882,
        0.4149059,
        0.4522286,
        24977789,
        1.553041,
        1.0124528,
        -0.4040362,
        -1.1053288,
        -0.2535482,
        -0.3064157,
        -0.643801,
        -0.0302199,
        -0.267854,
        -0.1371173,
        0.2459129,
        -0.2798935,
        0.1218504,
        -0.0808078,
        -2402012,
        -0.2574864,
        -0.2763009,
        -0.3176222,
        -0.3163711,
        -0.2686906,
        -0.3774908,
        24518763,
        0.388445,
        -24411671,
        -0.6435702,
        -24326026,
        0.2456468,
        24968849,
        0.0930705,
        -0.3872391,
        -0.4832093,
        0.358164,
        0.091044,
        -0.3404418,
        0.6759266
      ],
      "bias": -9.0831812,
      "positive_count": 88,
      "training_stats": {
        "positive": 88,
        "negative": 1852,
        "loss": 0.167626
      },
      "threshold": 0.42
    },
    "cut_work": {
      "weights": [
        0.0752065,
        0.6318292,
        -0.0197924,
        0.2288816,
        -0.3378131,
        0.0788207,
        -0.0218524,
        -0.2208444,
        -0.2080681,
        -0.7278546,
        0.8059794,
        0.1563765,
        -0.7476132,
        -0.2110638,
        -24692047,
        -0.2448959,
        -0.2693368,
        -0.0434887,
        -0.157994,
        0.2180719,
        0.8054419,
        0.0572964,
        0.3041924,
        -0.3228815,
        0.0440763,
        -0.0256091,
        -0.1195194,
        -0.0221589,
        -0.4526642,
        1.2219435,
        0.2938666,
        -0.0887461,
        0.0766953,
        -0.0786041,
        0.1780405,
        0.2509358,
        -0.0481521,
        -0.1370949,
        -0.1201779,
        24439347,
        -0.0645216,
        0.1278926,
        -0.3307476,
        0.1214191,
        -0.0192802,
        -0.2539896,
        -0.3228858,
        -0.8867536,
        0.3839074,
        -0.2387833,
        -1.2614986,
        -2473738,
        -0.9788557,
        -0.6653643,
        -0.8504998,
        -0.038922,
        -0.165816,
        0.0381471,
        0.0839741,
        0.1338116,
        -2401492,
        0.7223052,
        0.2639441,
        0.025812,
        0.1126524,
        0.025387,
        0.7943101,
        0.9223059,
        0.0238446,
        -0.1599809,
        0.2221155,
        -0.1164673,
        -0.0329593,
        -0.2090287,
        0.0412648,
        0.2157229,
        -0.116881,
        0.043666,
        -24021722,
        -0.202803,
        0.1127006,
        -0.3757006,
        0.0129047,
        0.0555865,
        -0.2807574,
        -0.0922755,
        -0.4884149,
        0.1930286,
        0.1774886
      ],
      "bias": -26.5824585,
      "positive_count": 14,
      "training_stats": {
        "positive": 14,
        "negative": 1926,
        "loss": 0.004921
      },
      "threshold": 0.42
    },
    "net_work": {
      "weights": [
        0.3892049,
        0.0218847,
        1.1301822,
        -0.2047098,
        -1.8879412,
        -1.5067369,
        0.8451075,
        0.2200636,
        0.127097,
        -0.6491473,
        -0.1965655,
        0.328527,
        0.045391,
        2.040635,
        1.0340212,
        0.174753,
        0.9069027,
        -0.188589,
        0.9778399,
        -1.1263913,
        0.2172592,
        1.1075783,
        -4.7135364,
        -1.3517033,
        -0.8209002,
        0.880318,
        24388674,
        1.0010922,
        -0.0992701,
        -0.8494103,
        -1.7268277,
        1.6952372,
        -3.6718577,
        -0.347671,
        -0.0822979,
        0.1405635,
        -0.4547822,
        0.7931155,
        1.735596,
        -0.1261873,
        0.949056,
        4.3402075,
        -1.8235561,
        -2.0393902,
        0.8144026,
        1.0570085,
        -0.4159358,
        -0.9631125,
        -0.6179786,
        -0.819285,
        -1.2116026,
        4.3503856,
        0.7721152,
        -0.6168847,
        0.0088999,
        -0.0659841,
        1.0240956,
        -1.5202402,
        4.0113462,
        0.1702941,
        0.7887134,
        -1.1852429,
        0.9655275,
        -1.4691074,
        4.0912303,
        1.0207353,
        -1.2396392,
        0.0913087,
        -0.1797481,
        -1.4199316,
        0.8766905,
        0.793295,
        0.8867906,
        0.0728401,
        -1.6693258,
        -0.6917312,
        0.240443,
        0.6816038,
        0.7886804,
        0.8411251,
        4.090639,
        -2.0188448,
        1.330019,
        2.4183302,
        0.3621993,
        1.0213688,
        -0.265691,
        -1.2608521,
        1.1009082
      ],
      "bias": 17.0871028,
      "positive_count": 1895,
      "training_stats": {
        "positive": 1895,
        "negative": 45,
        "loss": 0.241601
      },
      "threshold": 0.42
    },
    "butti": {
      "weights": [
        0.0191077,
        0.3386278,
        -0.1704211,
        -0.3094825,
        1.1610361,
        -0.0233532,
        0.1721839,
        -0.0104815,
        -0.3321952,
        -0.0870969,
        0.0541655,
        -1.1754422,
        -0.1251828,
        -0.2031932,
        -0.1746729,
        -24179405,
        -0.6908726,
        -0.0587539,
        -0.0663087,
        0.1011247,
        -0.2366296,
        -24506406,
        -1.1811633,
        0.3609366,
        -0.0060922,
        0.1111298,
        -24436516,
        1.1251357,
        -0.2486209,
        0.1460384,
        -0.7243425,
        0.8462282,
        1.2613278,
        0.9865811,
        1.2865747,
        -0.3070544,
        0.1336185,
        -0.0468938,
        0.0304218,
        24429021,
        0.000992,
        0.4158904,
        1.7604678,
        0.0575483,
        0.1763029,
        0.3774,
        -1.0239279,
        0.0655821,
        0.1906055,
        0.2434648,
        -0.3385689,
        -0.6617218,
        -1.1546211,
        -1.4105643,
        -0.71735,
        -0.1816495,
        -0.0737257,
        0.634665,
        0.6900273,
        -1.0820829,
        -1.3672896,
        0.2703065,
        0.05999,
        -1.0660167,
        2460745,
        0.1476192,
        -0.1963549,
        -0.1957395,
        24882625,
        -0.2125224,
        0.7429708,
        0.0259433,
        0.0129434,
        0.8042444,
        0.6318766,
        0.8554683,
        0.0530848,
        -0.049764,
        -1.3676247,
        0.1604138,
        24604821,
        -2.5905765,
        -0.3591581,
        0.2013467,
        -0.0676801,
        -0.2500542,
        -0.2260735,
        0.001076,
        -0.3197504
      ],
      "bias": -0.0983222,
      "positive_count": 906,
      "training_stats": {
        "positive": 906,
        "negative": 1034,
        "loss": 0.142672
      },
      "threshold": 0.42
    },
    "border": {
      "weights": [
        0.2604518,
        -0.6691576,
        -0.6865756,
        0.2099335,
        -0.0006646,
        0.0461964,
        -0.1311311,
        0.0522126,
        -0.2005823,
        -0.0235974,
        -0.0073615,
        -0.1829346,
        -0.1322369,
        24482372,
        0.4673795,
        0.1044908,
        -0.415343,
        0.4190465,
        -0.1438025,
        -2430601,
        0.7628987,
        -1.3884254,
        -0.1393654,
        -0.0047661,
        0.1449703,
        0.0532351,
        0.1858258,
        0.0420208,
        -0.0222787,
        -0.0429947,
        0.2602853,
        0.2320422,
        0.225845,
        -0.7142799,
        -0.3913326,
        24279126,
        0.6712835,
        -0.409384,
        0.6695692,
        -1.2829911,
        -0.3683933,
        0.3425996,
        0.2178575,
        0.0314335,
        -0.290283,
        -0.034036,
        -0.2893821,
        -0.0232936,
        -0.231355,
        -1.4914382,
        -0.2193781,
        -0.6236069,
        1.5198876,
        24020145,
        -0.9889277,
        0.2997951,
        -0.0159127,
        0.3236193,
        0.3724697,
        -0.3559656,
        -0.6791203,
        -0.2043946,
        1.4186505,
        24082582,
        0.2717059,
        0.1325649,
        -0.1220847,
        0.0677314,
        -0.3704807,
        -0.3439618,
        -0.1477368,
        -0.275966,
        0.0164787,
        0.1810877,
        -2480947,
        0.2210825,
        7.39e-05,
        -0.0768306,
        -0.6792404,
        -1.3587678,
        0.2721244,
        0.2143096,
        -0.1116122,
        0.2028137,
        0.2836139,
        0.1275603,
        -0.1218982,
        0.2719648,
        -24119324
      ],
      "bias": -0.8453276,
      "positive_count": 843,
      "training_stats": {
        "positive": 843,
        "negative": 1097,
        "loss": 0.272283
      },
      "threshold": 0.42
    },
    "flowers": {
      "weights": [
        -0.0143593,
        0.0084084,
        0.0775143,
        -0.3345587,
        1.6275428,
        0.0186032,
        -0.0246406,
        0.7729923,
        -0.11212,
        -0.0744382,
        0.15867,
        -0.0241876,
        0.2605918,
        -0.2265844,
        0.1579676,
        -0.01353,
        0.0272952,
        -0.034519,
        -0.1038752,
        -0.1506839,
        0.147172,
        0.0610118,
        -24779137,
        0.7148693,
        0.0102714,
        -0.1078952,
        0.0968789,
        -0.162617,
        -0.0519919,
        -0.3790895,
        -0.1684492,
        0.0513382,
        -0.1307293,
        -0.0764215,
        -0.0948509,
        -0.2048192,
        -0.0802038,
        -0.0645986,
        0.046842,
        -0.0698206,
        0.0722377,
        -0.0963141,
        2.0486573,
        0.0228347,
        0.0104364,
        1.1806021,
        -0.0870716,
        -0.091764,
        0.9045588,
        -0.0545866,
        0.3649366,
        -0.2372419,
        0.1954675,
        0.0055792,
        0.111942,
        -0.0152442,
        -0.1233001,
        -0.0167653,
        -0.0049733,
        0.0227431,
        0.032277,
        -0.0426198,
        0.042554,
        -0.1455817,
        -0.2322178,
        -0.0477042,
        0.1439353,
        -0.1636494,
        -0.0306304,
        -0.0057806,
        0.1933047,
        0.0276532,
        -0.0488557,
        -0.1543527,
        0.0685714,
        -0.392498,
        -0.0187166,
        0.0191956,
        0.0326808,
        -0.0494294,
        -0.2320732,
        1.7071232,
        0.4534668,
        0.0222937,
        0.1727906,
        0.1616099,
        -0.0996346,
        -0.1775533,
        -0.0681512
      ],
      "bias": 7.2537193,
      "positive_count": 1442,
      "training_stats": {
        "positive": 1442,
        "negative": 498,
        "loss": 0.011718
      },
      "threshold": 0.42
    },
    "rangoli_design": {
      "weights": [
        -0.2512108,
        -1.0903135,
        24790948,
        0.0105636,
        -24961977,
        0.3058354,
        -0.1448892,
        -0.4839816,
        0.6083908,
        -0.6465837,
        -0.1727836,
        0.1344723,
        -0.3145001,
        -0.2822196,
        0.3736071,
        -2439505,
        -0.2380736,
        -0.0554747,
        -0.379983,
        0.007013,
        -0.9980844,
        0.6344856,
        0.4939594,
        -2.7782203,
        0.2853912,
        -0.4303157,
        -1.1170037,
        0.2708588,
        -0.7480912,
        -0.1637083,
        0.634951,
        -0.2014491,
        1.0516771,
        0.2546298,
        0.1631781,
        0.7344673,
        0.2483704,
        0.2825336,
        -0.3209562,
        -1.0804787,
        24288816,
        -0.1960201,
        1.1733184,
        0.3212487,
        -0.0167003,
        0.137109,
        0.7796555,
        -2475153,
        0.9848724,
        -0.1515096,
        -0.3293121,
        -0.6199888,
        24983404,
        -0.7200532,
        -24249531,
        -0.1781652,
        -0.7107887,
        -0.7628615,
        -0.1954857,
        -0.1605855,
        0.179479,
        -0.9909726,
        -0.4183763,
        -1.1934908,
        0.0487671,
        -0.0596127,
        -0.1097423,
        -1.1212396,
        0.7252516,
        0.0751376,
        -0.0759412,
        -0.109005,
        -0.164574,
        -0.1291444,
        -0.2956346,
        0.8232905,
        0.1661637,
        0.0437948,
        0.1797054,
        0.1882677,
        0.0488217,
        -2.0166198,
        0.0256778,
        1.55989,
        0.205302,
        -0.1977036,
        -0.0013447,
        -1.1675761,
        0.2767598
      ],
      "bias": -14.208958,
      "positive_count": 138,
      "training_stats": {
        "positive": 138,
        "negative": 1802,
        "loss": 0.072579
      },
      "threshold": 0.42
    },
    "stitched_photo_reference": {
      "weights": [
        0.1651645,
        -0.0342509,
        -0.4200017,
        0.1746082,
        0.0703679,
        -0.0097607,
        -0.2701236,
        -0.07694,
        0.0790395,
        0.1464236,
        -0.0942833,
        1.0657018,
        -0.0235723,
        -0.3533958,
        0.0549062,
        0.2458881,
        0.3531008,
        -0.0580417,
        0.4103978,
        -1.8565765,
        0.4537398,
        -1.3007658,
        0.0585498,
        0.0524179,
        0.0040415,
        -0.1984159,
        -0.06682,
        -0.4580417,
        -24376934,
        0.018935,
        0.0510988,
        -0.7375659,
        0.0387752,
        -0.0322031,
        0.1821318,
        -24210584,
        -24892638,
        0.9012621,
        1.2340002,
        -0.2689431,
        -0.0987489,
        0.2715698,
        0.1337354,
        -0.0685116,
        -0.3324203,
        -0.0732097,
        0.2986448,
        0.4919144,
        -0.1199075,
        1.1800573,
        0.0700547,
        -1.0272986,
        -0.2427979,
        0.0116701,
        0.7608343,
        0.2317503,
        0.1559853,
        -0.063721,
        0.3358763,
        1.1846586,
        -0.2414497,
        0.3321509,
        -0.2349845,
        -0.309067,
        -0.1614664,
        -0.2423742,
        -0.066267,
        -0.0516862,
        0.281663,
        0.0732769,
        -0.1917546,
        -0.273022,
        -0.2468763,
        -0.2788666,
        0.1280442,
        -0.370142,
        24075748,
        -0.0436306,
        -0.242192,
        -0.3614205,
        -0.1618307,
        -0.0647221,
        -0.038315,
        -0.1350549,
        -0.4392371,
        0.1372727,
        0.1178803,
        0.1480249,
        0.1700697
      ],
      "bias": -1.4428459,
      "positive_count": 408,
      "training_stats": {
        "positive": 408,
        "negative": 1532,
        "loss": 0.33398
      },
      "threshold": 0.42
    },
    "heavy_outline": {
      "weights": [
        0.0515993,
        0.1196696,
        0.0703627,
        0.0717238,
        -0.2547132,
        0.323545,
        -0.3053299,
        0.0844955,
        -0.2990868,
        0.052155,
        0.136867,
        -0.1438651,
        0.090363,
        0.0591736,
        -0.0710758,
        0.1038414,
        -0.0210831,
        0.101272,
        -0.1127589,
        -0.4373601,
        -0.1251449,
        0.1845595,
        1.6272629,
        -0.1112722,
        -2.7695295,
        -0.3933853,
        0.0096505,
        -0.1886682,
        -0.0745386,
        0.0898295,
        -0.3447818,
        0.1464755,
        0.0504024,
        -1.2082597,
        0.2897702,
        0.6109669,
        0.1111979,
        -0.2166042,
        0.4587508,
        0.3286036,
        0.0615639,
        -1.1738355,
        -0.1234148,
        1.9957968,
        -0.2455377,
        -0.0629799,
        -0.3806884,
        0.1304296,
        0.0165408,
        0.7472028,
        -0.009998,
        0.3027381,
        0.863305,
        0.0551389,
        0.0701589,
        0.0862384,
        -0.0459441,
        -0.0280227,
        0.0633876,
        0.6358864,
        0.4242643,
        -24431597,
        -0.8737732,
        0.2332029,
        0.2643912,
        -0.0154668,
        -0.8565722,
        0.7631128,
        1.1070045,
        0.6781534,
        1.5783519,
        0.8290272,
        -0.3243904,
        0.0939796,
        -0.7211488,
        0.3185569,
        -0.3592661,
        0.061433,
        0.4246332,
        0.2972681,
        0.2636662,
        -0.33114,
        0.0433419,
        0.2024691,
        -0.3821053,
        0.0305001,
        -0.1360356,
        0.1211628,
        0.1177798
      ],
      "bias": 1.5153367,
      "positive_count": 1443,
      "training_stats": {
        "positive": 1443,
        "negative": 497,
        "loss": 0.221839
      },
      "threshold": 0.42
    }
  },
  "prototypes": {
    "multi_design_preview": {
      "count": 1203,
      "centroid": [
        0.171756,
        -0.2156751,
        0.3280115,
        -0.0038346,
        -0.2424775,
        0.1658625,
        0.2701791,
        -0.2930305,
        0.2008259,
        0.1612752,
        -0.2664903,
        0.2244398,
        0.1984381,
        0.2028162,
        0.1864295,
        0.2350511,
        0.2155695,
        0.0575811,
        -0.0742606,
        0.152409,
        -0.2174739,
        0.3041924,
        -0.0100068,
        -0.1882136,
        0.1618596,
        0.2672184,
        -0.2738938,
        0.2005115,
        0.1625499,
        -0.2098373,
        0.1774546,
        0.1980688,
        0.1497762,
        0.1571792,
        0.2130137,
        0.2094295,
        0.0562961,
        -0.0672866,
        0.1802648,
        -0.2131806,
        0.3378621,
        0.0010863,
        -0.2632952,
        0.1661184,
        0.2714403,
        -0.2989728,
        0.1999679,
        0.1599206,
        -0.2972439,
        0.233506,
        0.1944875,
        0.2196702,
        0.1962558,
        0.2399656,
        0.2115464,
        0.0581127,
        -0.0775903,
        0.100407,
        0.1566963,
        0.1946839,
        0.3367701,
        -0.2023938,
        0.2385812,
        -0.0274627,
        0.1339548,
        0.267127,
        -0.2641674,
        -0.2280671,
        0.2084435,
        0.1928329,
        0.1702696,
        0.2710626,
        0.2665805,
        0.192172,
        0.1610143,
        0.2237241,
        -0.0050844,
        0.237333,
        0.3367701,
        0.3084494,
        0.1339548,
        -0.1588342,
        0.0055901,
        0.0371882,
        0.2312417,
        0.0027121,
        0.1926579,
        0.1303752,
        0.061544
      ],
      "spread": 1.116691,
      "mean_distance": 0.9772321
    },
    "heavy_work": {
      "count": 1923,
      "centroid": [
        0.0074149,
        -0.0158276,
        0.011508,
        0.0169309,
        0.0073686,
        0.0145296,
        -0.0004907,
        0.0082102,
        0.003954,
        0.0165228,
        0.0071039,
        0.0100659,
        0.0124206,
        0.0078592,
        0.0095547,
        0.011425,
        0.0114005,
        0.0039872,
        -0.0082326,
        0.0059005,
        -0.0173744,
        0.0099709,
        0.0058147,
        0.0088617,
        0.0121473,
        -0.0006043,
        0.008634,
        0.0039799,
        0.0141747,
        0.0054841,
        0.0055478,
        0.0101067,
        0.0054889,
        0.0068897,
        0.0084523,
        0.0088881,
        0.0042277,
        -0.0074746,
        0.0082033,
        -0.015007,
        0.0122632,
        0.0254323,
        0.0060186,
        0.0158081,
        -0.000434,
        0.0074865,
        0.0039158,
        0.0178162,
        0.00673,
        0.0151229,
        0.01343,
        0.0085613,
        0.0106566,
        0.0129441,
        0.0125155,
        0.0038336,
        -0.0085613,
        0.0042836,
        0.0076543,
        0.0089704,
        0.0052522,
        -0.0115044,
        -0.0031091,
        -0.0095649,
        0.0141907,
        -4.23e-05,
        0.0072779,
        0.0077984,
        0.0110726,
        0.0154996,
        0.0028124,
        -4.99e-05,
        -0.0012624,
        0.0102632,
        0.0062499,
        0.0089083,
        -0.0018098,
        0.0092657,
        0.0052522,
        0.0021059,
        0.0141907,
        0.0106469,
        -0.0020414,
        0.0096676,
        0.0122776,
        -0.0024936,
        0.0106684,
        0.0051176,
        0.0068382
      ],
      "spread": 1.078312,
      "mean_distance": 0.9316388
    },
    "all_over_design": {
      "count": 1834,
      "centroid": [
        0.0205403,
        -0.0409612,
        0.0325046,
        0.0071197,
        0.0714388,
        0.054812,
        -0.0032912,
        0.0668915,
        0.0199722,
        0.0290891,
        0.0548695,
        0.0498439,
        0.0323228,
        0.0378597,
        0.0226882,
        0.0443573,
        0.0508293,
        0.0360871,
        -0.0181765,
        0.0176778,
        -0.0422873,
        0.0317263,
        -0.0063116,
        0.0693367,
        0.0504802,
        -0.0038322,
        0.062646,
        0.0210339,
        0.0277638,
        0.0368863,
        0.0337635,
        0.0329585,
        0.0297405,
        0.0228563,
        0.0393612,
        0.0461399,
        0.0352478,
        -0.0150586,
        0.0218518,
        -0.0402229,
        0.0325854,
        0.0184631,
        0.0707837,
        0.0566627,
        -0.0030132,
        0.0668103,
        0.0192402,
        0.0298045,
        0.0640011,
        0.0610133,
        0.0307154,
        0.0419304,
        0.0205782,
        0.0451759,
        0.0506541,
        0.0363521,
        -0.0196681,
        0.0069324,
        0.0187934,
        0.0334741,
        0.0140175,
        -0.0383296,
        -0.0098291,
        -0.0213141,
        0.046389,
        -0.0036738,
        0.054541,
        0.0551548,
        0.0457818,
        0.049573,
        0.0236091,
        0.0006403,
        -0.0052216,
        0.0266366,
        0.0290108,
        0.0446293,
        0.0184879,
        0.0258984,
        0.0140175,
        0.0040004,
        0.046389,
        0.0778054,
        -0.0038495,
        0.0263086,
        0.0453729,
        0.0111939,
        0.025882,
        0.024637,
        0.0354703
      ],
      "spread": 1.0843146,
      "mean_distance": 0.9350113
    },
    "front_neck": {
      "count": 1747,
      "centroid": [
        0.0033056,
        0.0650969,
        -0.0356675,
        -0.013735,
        -0.0448632,
        -0.0334964,
        -0.0193727,
        -0.0333387,
        -0.0096333,
        0.0197234,
        -0.0160013,
        -0.1000568,
        -0.0254427,
        0.0119217,
        0.0005327,
        -0.0590289,
        -0.0520812,
        -0.0498405,
        0.0834391,
        0.0139066,
        0.0635518,
        -0.0318173,
        -0.0341723,
        -0.0441791,
        -0.0290278,
        -0.0174602,
        -0.0262416,
        -0.0058929,
        0.0234252,
        -0.001169,
        -0.0790824,
        -0.0143594,
        0.0212826,
        0.0027402,
        -0.0476286,
        -0.0445301,
        -0.0492058,
        0.0705952,
        -0.0039462,
        0.0653808,
        -0.0371501,
        0.0048842,
        -0.0449902,
        -0.0354387,
        -0.0202443,
        -0.0365987,
        -0.0114685,
        0.0177533,
        -0.0275389,
        -0.102287,
        -0.0305161,
        0.0041206,
        -0.0001966,
        -0.0625484,
        -0.0545357,
        -0.0498661,
        0.0898706,
        0.0237156,
        -0.0023331,
        -0.0046207,
        -0.0283683,
        0.0460976,
        -0.0053425,
        0.0476765,
        -0.0441186,
        -0.0219593,
        -0.0180663,
        -0.0180668,
        -0.0252262,
        -0.0095957,
        -0.0310172,
        -0.0260823,
        -0.0098394,
        0.0084762,
        0.0130035,
        -0.0440361,
        0.012171,
        -0.0109464,
        -0.0283683,
        -0.0318118,
        -0.0441186,
        -0.0647103,
        -0.0353314,
        -0.0741608,
        -0.0617284,
        -0.0089503,
        0.0049026,
        -0.0715835,
        -0.071937
      ],
      "spread": 1.0806728,
      "mean_distance": 0.9331509
    },
    "back_neck": {
      "count": 51,
      "centroid": [
        -1.0016711,
        0.0721567,
        -1.0459638,
        -0.1954845,
        -0.085226,
        -24231988,
        -0.4410115,
        -0.1551793,
        -0.3660581,
        -24182206,
        -0.1884837,
        -24439702,
        -24743622,
        -0.1634994,
        0.0247868,
        -0.6006191,
        -0.7522576,
        -0.9863744,
        0.341265,
        -0.7676762,
        0.0368614,
        -0.9515705,
        -0.2935793,
        -0.1575185,
        -24103624,
        -0.4361787,
        -0.2114191,
        -0.3588705,
        -24122007,
        -0.1831993,
        -0.4700231,
        -24419757,
        -0.2277948,
        -0.0849419,
        -24572525,
        -0.6652063,
        -0.9302996,
        0.2832659,
        -1.1106598,
        0.0898072,
        -1.0830445,
        -0.0865989,
        -0.0403632,
        -24251059,
        -0.4430701,
        -0.1147091,
        -0.3666255,
        -24192031,
        -0.1451993,
        -24261692,
        -24747106,
        -0.0822861,
        0.0876559,
        -2497746,
        -0.7763914,
        -1.0116553,
        0.3689849,
        -0.9616718,
        -0.9877076,
        -0.9337786,
        -0.9018167,
        -0.0543047,
        -0.4155691,
        -0.1706285,
        -24156398,
        -0.4489822,
        -0.2280212,
        -0.2219356,
        -24338329,
        -24945547,
        -0.4050849,
        -0.4953747,
        -0.4248282,
        -0.4710118,
        -0.1803875,
        -0.6379212,
        -24989131,
        -1.0637148,
        -0.9018167,
        -24731498,
        -24156398,
        -0.2640583,
        0.3522657,
        -0.1337523,
        -0.6140346,
        -0.2526171,
        -0.4666811,
        -24351464,
        -0.6365517
      ],
      "spread": 0.7346576,
      "mean_distance": 0.6105284
    },
    "boat_neck": {
      "count": 1524,
      "centroid": [
        -0.0848606,
        0.2578077,
        -0.2158827,
        0.0807977,
        0.0535328,
        -0.2703235,
        0.034422,
        0.0618646,
        -0.0772494,
        -0.0157716,
        0.0611695,
        -0.2552628,
        -0.0586163,
        -0.2697841,
        -0.1960622,
        -0.2113055,
        -0.1291445,
        0.0101213,
        0.0319418,
        -0.061723,
        0.2191143,
        -0.2245924,
        0.0700805,
        0.0580106,
        -0.2864123,
        0.0403336,
        0.0581587,
        -0.0699004,
        -0.0124483,
        0.0578593,
        -0.2639796,
        -0.0463326,
        -0.2746708,
        -0.1912695,
        -0.2106368,
        -0.130677,
        0.0160204,
        0.0281976,
        -0.0961253,
        0.2760353,
        -0.2088578,
        0.0843776,
        0.0483477,
        -0.2601598,
        0.0312315,
        0.0657206,
        -0.0807968,
        -0.0175131,
        0.0575253,
        -0.2206365,
        -0.0646417,
        -0.2290034,
        -0.1907222,
        -0.2059752,
        -0.1269352,
        0.0068287,
        0.0337614,
        0.0119641,
        -0.0563549,
        -0.1659414,
        -0.0247449,
        0.2563934,
        0.0669073,
        0.161123,
        -0.1918084,
        0.0385454,
        0.0609098,
        0.0630923,
        -0.2150163,
        -0.1925051,
        0.0400796,
        0.0353088,
        0.0357445,
        -0.0453983,
        -0.2401911,
        -0.1768933,
        0.0250182,
        -0.1371501,
        -0.0247449,
        -0.0110179,
        -0.1918084,
        -0.0583683,
        0.1004189,
        0.0386939,
        -0.2052214,
        0.0721927,
        -0.0502772,
        -0.1550221,
        0.0424777
      ],
      "spread": 1.0277093,
      "mean_distance": 0.8776127
    },
    "pot_neck": {
      "count": 354,
      "centroid": [
        0.3040845,
        -1.4161786,
        0.9777459,
        -0.0219203,
        -0.1761423,
        1.2464097,
        -0.1590147,
        -0.20808,
        0.1727149,
        -0.002877,
        -0.2394624,
        1.1355239,
        0.1625387,
        1.228056,
        0.8216889,
        0.8608397,
        24946031,
        -0.0381103,
        -0.1671775,
        0.1807987,
        -1.3010179,
        0.9845919,
        -0.062468,
        -0.2144258,
        1.2867608,
        -0.1862901,
        -0.2277469,
        0.1349855,
        -0.0283853,
        -0.2363558,
        1.0136157,
        0.0921572,
        1.0625219,
        0.7164272,
        0.7939976,
        24238872,
        -0.0629353,
        -0.1509363,
        0.3686593,
        -1.4693758,
        0.9624588,
        0.0199853,
        -0.1406178,
        1.2154959,
        -0.1445527,
        -0.1821601,
        0.1913257,
        0.0100423,
        -0.2027842,
        1.1031995,
        0.1959326,
        1.1878627,
        0.8306849,
        0.8616387,
        0.6112295,
        -0.0248747,
        -0.1753179,
        -0.1904529,
        0.304853,
        0.6648981,
        0.0878143,
        -1.2648731,
        -0.3552629,
        -1.0630815,
        1.1223265,
        -0.158266,
        -0.2402847,
        -0.2541674,
        0.8861923,
        0.8283119,
        -0.1664945,
        -0.1603526,
        -0.1677883,
        0.0614626,
        0.9258377,
        0.6813757,
        -0.1204838,
        2466906,
        0.0878143,
        0.0664549,
        1.1223265,
        0.3637614,
        -0.4020703,
        0.0161542,
        0.846825,
        -0.3059492,
        0.0927649,
        24503368,
        -0.0595545
      ],
      "spread": 0.9085045,
      "mean_distance": 0.7875527
    },
    "short_hand": {
      "count": 226,
      "centroid": [
        -0.2492985,
        0.1642661,
        -0.3432186,
        0.0203722,
        -0.0728939,
        0.0354905,
        -0.3040659,
        -0.03889,
        0.3463268,
        0.0928203,
        -0.0504698,
        0.2803735,
        0.2479425,
        -0.0772624,
        0.1886741,
        0.3295685,
        0.0083529,
        -0.1019064,
        -0.4911927,
        -0.2588423,
        0.24951,
        -0.3241876,
        0.0141799,
        -0.1071289,
        0.0549839,
        -0.2970215,
        -0.0347682,
        0.3218591,
        0.0875087,
        -0.0543064,
        0.3259958,
        0.2132914,
        0.038561,
        0.20747,
        0.3040795,
        0.0219286,
        -0.1225633,
        -0.4592968,
        -0.2339323,
        0.1240223,
        -0.3511491,
        0.0204386,
        -0.0521378,
        0.0262121,
        -0.3073272,
        -0.0425475,
        0.3567031,
        0.0950398,
        -0.046529,
        0.1604043,
        0.2631453,
        -0.2152721,
        0.1739212,
        0.334531,
        0.0106117,
        -0.0906279,
        -24056502,
        -0.2011299,
        -0.2560663,
        -0.1988087,
        -0.4414673,
        0.1575778,
        -0.2312766,
        0.410368,
        0.0108185,
        -0.3019506,
        -0.0391402,
        -0.0747464,
        0.1819684,
        0.0653971,
        -0.2703469,
        -0.3104618,
        -0.3242717,
        0.2251184,
        0.0982403,
        0.1553154,
        -0.3907216,
        -0.295375,
        -0.4414673,
        -0.3800078,
        0.0108185,
        -0.0409963,
        -0.3149073,
        -0.2019347,
        0.2954112,
        -0.4510533,
        0.2367941,
        24126127,
        -0.2000967
      ],
      "spread": 1.0648768,
      "mean_distance": 0.9027148
    },
    "full_hand": {
      "count": 1180,
      "centroid": [
        -0.1500171,
        0.4519668,
        -0.3498474,
        0.0266815,
        0.313581,
        -0.3850933,
        -0.035661,
        0.2904676,
        -0.2627537,
        -0.1862337,
        0.2543134,
        -0.4259344,
        -0.2570119,
        -0.4032979,
        -0.3234385,
        -0.3941669,
        -0.3471423,
        -0.1086163,
        0.2151831,
        -0.1165091,
        0.4414513,
        -0.3413018,
        0.0016339,
        0.2851273,
        -0.3786015,
        -0.024282,
        0.2610448,
        -0.2586229,
        -0.1879789,
        0.1948443,
        -0.3480241,
        -0.2485221,
        -0.3234872,
        -0.2891855,
        -0.3604543,
        -0.3266491,
        -0.1003333,
        0.2050591,
        -0.1712146,
        0.4545996,
        -0.3510922,
        0.0462085,
        0.3236367,
        -0.3851755,
        -0.0412793,
        0.302006,
        -0.2636682,
        -0.1846209,
        0.2919966,
        -0.4386077,
        -0.2569487,
        -0.4183108,
        -0.3283657,
        -0.4004144,
        -0.3488457,
        -0.1128646,
        0.2196417,
        -0.0043564,
        -0.1313367,
        -0.2469945,
        -0.1804388,
        0.406186,
        0.0442015,
        0.1793541,
        -0.3250543,
        -0.0363883,
        0.248615,
        0.2461503,
        -0.3790557,
        -0.3535834,
        0.0802473,
        -0.0475848,
        -0.0227078,
        -0.2372355,
        -0.3246575,
        -0.3613517,
        0.050856,
        -0.2307061,
        -0.1804388,
        -0.1220271,
        -0.3250543,
        0.1271527,
        0.1332571,
        -0.019996,
        -0.390784,
        0.1032824,
        -0.2393065,
        -0.224163,
        -0.0670848
      ],
      "spread": 0.9937323,
      "mean_distance": 0.8441228
    },
    "hand_design": {
      "count": 953,
      "centroid": [
        -0.0976634,
        0.3456298,
        -0.2797881,
        0.0306158,
        0.0259777,
        -0.2236929,
        -0.1310126,
        0.0548563,
        -0.0408776,
        -0.0862583,
        0.0598138,
        -0.2105558,
        -0.0850434,
        -0.2557945,
        -0.1891593,
        -0.1685062,
        -0.1645231,
        -0.0051128,
        0.2069059,
        -0.073379,
        0.3619959,
        -0.2670968,
        0.0150585,
        0.0112282,
        -0.2053493,
        -0.1211734,
        0.0599814,
        -0.037957,
        -0.0790077,
        0.0569598,
        -0.1345162,
        -0.0721789,
        -0.1702056,
        -0.1421778,
        -0.1432351,
        -0.156003,
        -0.0177321,
        0.2089436,
        -0.1160938,
        0.335334,
        -0.2846074,
        0.0407803,
        0.0342681,
        -0.2320546,
        -0.1357935,
        0.0520408,
        -0.0428667,
        -0.0899828,
        0.055079,
        -0.2599981,
        -0.0921109,
        -0.2983347,
        -0.2086057,
        -0.1794461,
        -0.1654392,
        0.0012644,
        0.2051545,
        0.0074075,
        -0.0880638,
        -0.1467491,
        -0.2404212,
        0.3142403,
        -0.0423552,
        0.25113,
        -0.1912947,
        -0.1293253,
        0.0622771,
        0.050149,
        -0.1620468,
        -0.187858,
        -0.084361,
        -0.1277905,
        -0.1187393,
        -0.0615501,
        -0.169496,
        -0.1572909,
        0.1402357,
        -0.169422,
        -0.2404212,
        -0.2156953,
        -0.1912947,
        -0.0725176,
        -0.0864688,
        -0.1585689,
        -0.180229,
        0.0494479,
        -0.0667369,
        -0.0412152,
        -0.0751912
      ],
      "spread": 1.0719951,
      "mean_distance": 0.9146125
    },
    "sleeve_panel": {
      "count": 88,
      "centroid": [
        -0.4974848,
        -0.2683158,
        -0.4769471,
        0.294869,
        0.0700138,
        0.2016444,
        -0.4410115,
        0.1217021,
        -0.0635063,
        0.3514351,
        0.0312141,
        0.3898745,
        0.2334809,
        -0.0218375,
        -0.3592781,
        0.1556904,
        0.7778692,
        0.9772401,
        -0.6129167,
        -24051749,
        -0.2884914,
        -0.4806192,
        0.3665776,
        -0.0035746,
        0.1540802,
        -0.4361787,
        0.0882147,
        -0.0990892,
        0.3196309,
        -0.0442394,
        0.2087507,
        0.1393371,
        -0.0805792,
        -0.3265229,
        0.0679297,
        0.6937183,
        0.9695707,
        -24676369,
        -0.4576308,
        -0.2560434,
        -0.4679855,
        0.2133635,
        0.1112418,
        0.2238347,
        -0.4430701,
        0.141667,
        -0.0450896,
        0.3646708,
        0.0889384,
        0.4755589,
        0.2755821,
        0.0286037,
        -0.3616768,
        0.1974947,
        0.7867506,
        0.9751434,
        -0.6336389,
        -24686678,
        -0.4469223,
        -0.3920866,
        -0.6556987,
        -0.1070186,
        -0.4473608,
        -0.2547785,
        0.3237275,
        -0.4220816,
        0.0562628,
        -0.011377,
        0.0722679,
        0.2771783,
        -0.349509,
        -0.3789267,
        -0.4695318,
        0.1008834,
        -0.1733745,
        0.4017497,
        0.3685353,
        -24125797,
        -0.6556987,
        -0.4955018,
        0.3237275,
        0.1879013,
        24012795,
        1.0179852,
        0.2597995,
        24555592,
        0.1463672,
        -0.1300005,
        1.2534173
      ],
      "spread": 0.7203766,
      "mean_distance": 0.6423007
    },
    "cut_work": {
      "count": 14,
      "centroid": [
        -1.0530428,
        1.349118,
        -1.2752227,
        0.1050563,
        0.8070702,
        -1.2293992,
        0.1619048,
        1.3260245,
        -1.569803,
        -1.6916026,
        2.6759114,
        -1.1048469,
        -2.1354751,
        -1.2401854,
        -1.532871,
        -1.740959,
        -1.6350994,
        -0.3635928,
        -0.0191531,
        -0.752165,
        1.414042,
        -1.1063974,
        0.0841126,
        0.8548236,
        -1.0924567,
        0.1764744,
        1.5347324,
        -1.3650612,
        -1.5043163,
        3.5010071,
        -0.6263073,
        -1.4636051,
        -0.6997588,
        -0.9161184,
        -1.1048908,
        -1.1001938,
        -0.3914386,
        -0.0540303,
        -1.2775168,
        1.3080581,
        -1.3589261,
        0.103272,
        0.7633029,
        -1.2947586,
        0.1545515,
        1.195533,
        -1.6740198,
        -1.785625,
        2.0421263,
        -1.5529728,
        -2.579306,
        -1.619669,
        -1.9632367,
        -2.1975529,
        -2.0272912,
        -0.3467322,
        -0.0004979,
        -0.8236881,
        -1.0237266,
        -1.0838761,
        -0.7612695,
        1.2460501,
        0.3980253,
        -0.2840753,
        -1.0678101,
        0.167249,
        2.6694946,
        2.6259196,
        -1.4198398,
        -1.4848818,
        0.6679914,
        0.1187678,
        0.167787,
        -1.4979645,
        -0.7991442,
        -1.1360158,
        -0.3020863,
        -1.1831682,
        -0.7612695,
        -0.1270155,
        -1.0678101,
        0.0893494,
        -0.7421391,
        -1.0969592,
        -1.8485864,
        -0.6054639,
        -1.7279381,
        -0.8147683,
        -0.7520553
      ],
      "spread": 0.3656042,
      "mean_distance": 0.4307359
    },
    "net_work": {
      "count": 1895,
      "centroid": [
        0.003878,
        -0.0095836,
        0.0092663,
        0.0607202,
        0.0008364,
        -0.0025342,
        0.0103538,
        -0.0002702,
        -0.010506,
        -0.0076284,
        -0.0106628,
        -0.0114325,
        -0.00554,
        -0.0116141,
        -0.0125376,
        -0.0124155,
        -0.0029341,
        0.0013721,
        -0.0014409,
        -0.002573,
        -0.0115886,
        0.0030026,
        0.0437033,
        0.0002257,
        -0.0061125,
        0.0103199,
        -0.005901,
        -0.0137661,
        -0.0105384,
        -0.0145635,
        -0.0310729,
        -0.0128068,
        -0.0344662,
        -0.028266,
        -0.0256317,
        -0.0168765,
        0.0009222,
        -0.0020467,
        0.0080543,
        -0.0085163,
        0.0123635,
        0.0718991,
        0.0018068,
        -0.0008996,
        0.0103276,
        0.0073252,
        -0.0089422,
        -0.0062765,
        -0.0062668,
        -0.001477,
        -0.0019313,
        7.11e-05,
        -0.0052296,
        -0.0066063,
        0.0028979,
        0.0014866,
        -0.0012003,
        0.0061687,
        0.0269881,
        -0.0041885,
        0.0113793,
        0.0120157,
        0.0090551,
        -0.0114063,
        0.0390377,
        0.0137383,
        -0.0107183,
        -0.0096226,
        -0.0116001,
        -0.0102449,
        0.0088227,
        0.0103402,
        0.0102837,
        -0.0131774,
        -0.0334479,
        -0.0229277,
        0.0002718,
        0.0060461,
        0.0113793,
        0.0113217,
        0.0390377,
        0.0059407,
        0.0030393,
        0.0214884,
        -0.0112867,
        0.0017,
        -0.0096622,
        -0.0126348,
        0.0150751
      ],
      "spread": 1.0749027,
      "mean_distance": 0.9176474
    },
    "butti": {
      "count": 906,
      "centroid": [
        -0.4522473,
        2413211,
        -24847886,
        -0.0671957,
        0.4732007,
        -24669551,
        0.0033276,
        0.4521047,
        -24581457,
        -24341746,
        0.4199804,
        -0.6146928,
        -0.6338474,
        -24072022,
        -0.4684201,
        -0.6716882,
        -0.6768024,
        -0.3054229,
        0.0580763,
        -0.390329,
        24091411,
        -24652073,
        -0.1258433,
        0.4553655,
        -24431148,
        0.0120472,
        0.4245806,
        -24260106,
        -24194747,
        0.3366038,
        -0.4676663,
        -2476911,
        -0.3853425,
        -0.387809,
        -24700974,
        -0.6063174,
        -0.2875824,
        0.0301844,
        -0.479934,
        24122343,
        -24889281,
        -0.0121668,
        0.4727144,
        -24746207,
        -0.0011163,
        0.4570633,
        -24707583,
        -24386938,
        0.4598831,
        -0.65161,
        -0.646721,
        -24389265,
        -0.4938754,
        -0.7042612,
        -0.6909311,
        -0.3135729,
        0.0720074,
        -0.2908657,
        -0.4444323,
        -24436511,
        -0.3369996,
        0.4166204,
        0.0846246,
        0.0011879,
        -24292203,
        -0.006376,
        0.4032875,
        0.4180892,
        -0.6282253,
        -0.6316569,
        0.1742713,
        -0.0275317,
        0.0125191,
        -2453115,
        -0.4073363,
        -0.6182726,
        -0.2174825,
        -24218507,
        -0.3369996,
        -0.1116389,
        -24292203,
        0.1811271,
        0.0917362,
        -0.1799213,
        -0.6723168,
        -0.1092858,
        -2479717,
        -0.3653461,
        -0.2937625
      ],
      "spread": 0.9112366,
      "mean_distance": 0.7623837
    },
    "border": {
      "count": 843,
      "centroid": [
        -0.2824974,
        0.056512,
        -0.4001121,
        -0.017732,
        -0.0608604,
        -0.0119544,
        -0.4042977,
        -0.0088544,
        0.0376414,
        -0.0223294,
        -0.0048446,
        -0.0183934,
        -0.0023091,
        0.004361,
        0.04164,
        0.0170989,
        -0.0697126,
        -0.0290514,
        -0.1620239,
        -0.2943909,
        0.0699468,
        -0.3871081,
        -0.0398012,
        -0.1043025,
        -0.0050921,
        -0.398872,
        -0.0047075,
        0.0382819,
        -0.0199698,
        -0.0020996,
        0.0040539,
        0.0021193,
        0.0215317,
        0.0391893,
        0.0216998,
        -0.0576452,
        -0.02378,
        -0.1690608,
        -0.2657808,
        0.0499292,
        -0.4031426,
        0.001903,
        -0.0348847,
        -0.0152443,
        -0.4066788,
        -0.0117782,
        0.0372208,
        -0.023281,
        -0.0086685,
        -0.0400783,
        -0.0036264,
        -0.0182265,
        0.042625,
        0.0148648,
        -0.0719691,
        -0.0309559,
        -0.1578367,
        -0.2656053,
        -0.2881565,
        -0.2395692,
        -24257991,
        0.0365543,
        -0.3699287,
        0.076852,
        -0.0277096,
        -0.4035371,
        -0.006554,
        -0.0381151,
        0.0112573,
        -0.0169829,
        -0.3458502,
        -0.4030911,
        -0.4109934,
        0.0121476,
        0.0257561,
        -0.0208141,
        -0.1328242,
        -0.3388442,
        -24257991,
        -0.4589464,
        -0.0277096,
        -0.0658187,
        -0.0704344,
        -0.1025935,
        0.0056827,
        -0.128994,
        0.0090384,
        0.0669815,
        -0.1232105
      ],
      "spread": 0.9627997,
      "mean_distance": 0.847491
    },
    "flowers": {
      "count": 1442,
      "centroid": [
        -0.1358206,
        0.0907492,
        -0.1413272,
        0.039833,
        2421512,
        -0.152637,
        0.0177512,
        0.4689633,
        -0.2748249,
        -0.2429432,
        0.3627898,
        -0.1553664,
        -0.2505329,
        -0.2315984,
        -0.2123666,
        -0.2349588,
        -0.2222875,
        -0.058212,
        -0.0639062,
        -0.1264742,
        0.0887942,
        -0.1410889,
        0.0154327,
        0.4780519,
        -0.1526986,
        0.0195242,
        0.4130808,
        -0.2773493,
        -0.2497044,
        0.2270872,
        -0.1518128,
        -0.258672,
        -0.2235707,
        -0.2035753,
        -0.2293807,
        -0.2232796,
        -0.0522094,
        -0.0629328,
        -0.1391377,
        0.0911563,
        -0.140433,
        0.0591178,
        24341272,
        -0.1513519,
        0.0167306,
        0.4912778,
        -0.272144,
        -0.238569,
        0.4520227,
        -0.1445807,
        -0.2417526,
        -0.2146911,
        -0.2107656,
        -0.2325798,
        -0.2166573,
        -0.0614403,
        -0.0643205,
        -0.1056255,
        -0.112327,
        -0.1637537,
        -0.0822583,
        0.0936094,
        0.027556,
        -0.1293442,
        -0.1070089,
        0.0192399,
        0.3599731,
        0.3542441,
        -0.2377521,
        -0.2307423,
        0.1791111,
        0.0130486,
        0.0135189,
        -0.2799515,
        -0.2213349,
        -0.2476461,
        -0.0887813,
        -0.1440489,
        -0.0822583,
        -0.0036174,
        -0.1070089,
        0.4657465,
        0.0932934,
        0.0797549,
        -0.2226288,
        -0.0171785,
        -0.275104,
        -0.1039685,
        0.0011049
      ],
      "spread": 1.0117139,
      "mean_distance": 0.8482733
    },
    "rangoli_design": {
      "count": 138,
      "centroid": [
        0.6383094,
        -1.5099094,
        1.2973337,
        -0.889224,
        -1.1930757,
        1.6091252,
        -0.3341759,
        -1.2133005,
        0.6557747,
        0.6132409,
        -0.9348807,
        1.8763351,
        0.6904525,
        1.8914586,
        1.4993076,
        1.4947582,
        1.2359442,
        0.1074568,
        -0.2554678,
        24276102,
        -1.3699737,
        1.3722186,
        -0.9257288,
        -1.2148854,
        1.7272461,
        -0.3534735,
        -1.1067692,
        0.64995,
        0.6184327,
        -0.6413683,
        2.0693732,
        0.6913208,
        2.0903548,
        1.6226063,
        1.6071789,
        1.3892024,
        0.0989372,
        -0.2083384,
        0.6801745,
        -1.57707,
        1.2469804,
        -0.7876945,
        -1.1317214,
        1.5410031,
        -0.3208241,
        -1.2831243,
        0.6572532,
        0.6102305,
        -1.0455663,
        1.6351777,
        0.6814765,
        1.6458173,
        1.375595,
        1.4034609,
        1.1336999,
        0.1133874,
        -0.2776893,
        0.0230858,
        0.2679423,
        1.1558677,
        0.0617579,
        -1.7127993,
        -0.4857162,
        -0.8756597,
        0.7448805,
        -0.3911574,
        -0.941763,
        -0.9624838,
        1.443626,
        1.4737432,
        -24766645,
        -0.3223787,
        -0.3477746,
        0.6766617,
        1.9362508,
        1.6007592,
        -0.057343,
        0.9109619,
        0.0617579,
        -0.1191973,
        0.7448805,
        -0.7964933,
        -0.3832987,
        0.0733155,
        1.5009684,
        -0.2502947,
        0.6737174,
        0.711473,
        0.0234955
      ],
      "spread": 0.9011141,
      "mean_distance": 0.8720229
    },
    "stitched_photo_reference": {
      "count": 408,
      "centroid": [
        0.2487455,
        -0.0165912,
        0.0478429,
        0.1000856,
        -0.041042,
        0.0483392,
        -0.4410115,
        0.0250307,
        0.0080575,
        0.1004527,
        0.0138765,
        0.0678446,
        0.0831087,
        -0.0354305,
        -0.1035676,
        0.0345602,
        0.1928028,
        0.2363861,
        0.6132314,
        0.1906707,
        -0.0179327,
        0.0363857,
        0.1138215,
        -0.0936595,
        0.0371496,
        -0.4361787,
        0.0238776,
        -0.0010588,
        0.0934434,
        0.0043366,
        0.0343929,
        0.0596773,
        -0.0355251,
        -0.0863817,
        0.0153368,
        0.1641819,
        0.2244247,
        0.6386283,
        0.2668292,
        -0.0155899,
        0.0514593,
        0.080388,
        -0.0097357,
        0.0535146,
        -0.4430701,
        0.0259944,
        0.0124163,
        0.1031788,
        0.0184478,
        0.080532,
        0.0925053,
        -0.0340265,
        -0.1088069,
        0.0431646,
        0.2006253,
        0.240943,
        24980302,
        0.2524994,
        0.2644547,
        0.2124703,
        -0.2914271,
        0.0272847,
        -0.423856,
        -0.0050143,
        0.0827193,
        -0.4333349,
        0.0231799,
        -0.0246093,
        0.0290327,
        0.0746873,
        -0.368913,
        -0.4228615,
        -0.4120865,
        0.0459805,
        -0.054506,
        0.0959553,
        0.6070865,
        0.1858433,
        -0.2914271,
        -0.423889,
        0.0827193,
        -0.0068327,
        0.2271912,
        0.1860752,
        0.0546018,
        24439621,
        0.0561392,
        -0.0290263,
        0.2905069
      ],
      "spread": 1.0020976,
      "mean_distance": 0.8847933
    },
    "heavy_outline": {
      "count": 1443,
      "centroid": [
        0.1938888,
        -0.2699506,
        0.2855852,
        0.080859,
        -0.1237741,
        0.3019123,
        0.0533882,
        -0.1148727,
        0.2001039,
        0.2239278,
        -0.0972931,
        0.2587161,
        0.2638084,
        0.2323611,
        0.2140337,
        0.2766893,
        0.2882031,
        0.1220017,
        -0.0553424,
        0.1531175,
        -0.2780853,
        0.2602397,
        0.1010252,
        -0.1108269,
        0.2719429,
        0.0506491,
        -0.1019835,
        0.1867519,
        0.2143116,
        -0.0687122,
        0.1782462,
        0.2303458,
        0.167958,
        0.1674915,
        0.2285671,
        0.2457844,
        0.1158747,
        -0.044655,
        0.2164383,
        -0.2644081,
        0.2965862,
        0.0575011,
        -0.1262609,
        0.315772,
        0.0547242,
        -0.1196221,
        0.205993,
        0.2279084,
        -0.1151649,
        0.3039067,
        0.27697,
        0.2604292,
        0.233242,
        0.296458,
        0.3058123,
        0.1247019,
        -0.0605034,
        0.1200817,
        0.1956599,
        0.2388869,
        0.1807144,
        -0.205354,
        0.0104747,
        -0.0659039,
        0.2926674,
        0.0603036,
        -0.0895824,
        -0.0890557,
        0.2855817,
        0.301489,
        0.0217003,
        0.0653199,
        0.0480502,
        0.2137497,
        0.175329,
        0.2495059,
        0.0659779,
        0.2366168,
        0.1807144,
        0.1056689,
        0.2926674,
        0.0188494,
        -0.0434322,
        0.1049363,
        0.2820245,
        0.0251843,
        0.2245357,
        0.1256053,
        0.1285148
      ],
      "spread": 1.0588983,
      "mean_distance": 0.9229361
    }
  },
  "cooccurrence": {
    "multi_design_preview": {
      "net_work": 0.99002,
      "heavy_work": 0.9867,
      "all_over_design": 0.91854,
      "front_neck": 0.87282,
      "heavy_outline": 0.86451,
      "boat_neck": 0.75977,
      "flowers": 0.60848,
      "full_hand": 0.41729,
      "border": 0.33832,
      "hand_design": 0.33416,
      "butti": 0.31588,
      "pot_neck": 0.21363
    },
    "heavy_work": {
      "net_work": 0.9766,
      "all_over_design": 0.95372,
      "front_neck": 0.89964,
      "boat_neck": 0.78627,
      "heavy_outline": 0.75039,
      "flowers": 0.74415,
      "multi_design_preview": 0.61726,
      "full_hand": 0.60686,
      "hand_design": 0.48674,
      "butti": 0.4649,
      "border": 0.43318,
      "stitched_photo_reference": 0.21061
    },
    "all_over_design": {
      "heavy_work": 1.0,
      "net_work": 0.97546,
      "front_neck": 0.89477,
      "boat_neck": 0.78081,
      "flowers": 0.76718,
      "heavy_outline": 0.75463,
      "full_hand": 0.61123,
      "multi_design_preview": 0.60251,
      "hand_design": 0.48201,
      "butti": 0.47056,
      "border": 0.43184,
      "stitched_photo_reference": 0.21265
    },
    "front_neck": {
      "heavy_work": 0.99027,
      "net_work": 0.97424,
      "all_over_design": 0.93932,
      "boat_neck": 0.79393,
      "flowers": 0.72639,
      "heavy_outline": 0.72353,
      "full_hand": 0.62393,
      "multi_design_preview": 0.60103,
      "butti": 0.49399,
      "hand_design": 0.4751,
      "border": 0.44305,
      "stitched_photo_reference": 0.19061
    },
    "back_neck": {
      "boat_neck": 1.0,
      "front_neck": 1.0,
      "net_work": 1.0,
      "heavy_work": 0.96078,
      "all_over_design": 0.82353,
      "flowers": 0.76471,
      "heavy_outline": 0.72549,
      "butti": 0.62745,
      "multi_design_preview": 248824,
      "full_hand": 246863,
      "hand_design": 0.15686,
      "pot_neck": 0.11765
    },
    "boat_neck": {
      "heavy_work": 0.99213,
      "net_work": 0.98294,
      "all_over_design": 0.93963,
      "front_neck": 0.9101,
      "flowers": 0.76378,
      "heavy_outline": 0.71588,
      "full_hand": 0.68373,
      "multi_design_preview": 249974,
      "butti": 242822,
      "hand_design": 240656,
      "border": 0.40945,
      "stitched_photo_reference": 0.21129
    },
    "pot_neck": {
      "all_over_design": 1.0,
      "heavy_work": 1.0,
      "net_work": 1.0,
      "heavy_outline": 0.92655,
      "front_neck": 0.84181,
      "multi_design_preview": 0.72599,
      "flowers": 0.67797,
      "border": 0.4435,
      "hand_design": 0.36723,
      "rangoli_design": 0.35593,
      "full_hand": 0.22599,
      "stitched_photo_reference": 0.20621
    },
    "v_neck_designs": {},
    "short_hand": {
      "border": 1.0,
      "heavy_work": 0.97345,
      "hand_design": 0.96018,
      "all_over_design": 0.91593,
      "net_work": 0.86726,
      "flowers": 0.74336,
      "front_neck": 0.72566,
      "heavy_outline": 0.60619,
      "boat_neck": 242212,
      "full_hand": 0.46903,
      "multi_design_preview": 0.40265,
      "butti": 0.36283
    },
    "full_hand": {
      "heavy_work": 0.98898,
      "net_work": 0.97034,
      "all_over_design": 0.95,
      "front_neck": 0.92373,
      "flowers": 0.88983,
      "boat_neck": 0.88305,
      "hand_design": 0.65508,
      "butti": 0.64746,
      "heavy_outline": 0.61356,
      "multi_design_preview": 0.42542,
      "border": 0.41271,
      "stitched_photo_reference": 0.30339
    },
    "hand_design": {
      "heavy_work": 0.98216,
      "net_work": 0.96118,
      "all_over_design": 0.9276,
      "front_neck": 0.87093,
      "full_hand": 0.81112,
      "boat_neck": 0.81007,
      "flowers": 0.75866,
      "heavy_outline": 246243,
      "butti": 240052,
      "border": 0.46905,
      "multi_design_preview": 0.42183,
      "stitched_photo_reference": 0.33893
    },
    "sleeve_panel": {
      "heavy_work": 1.0,
      "net_work": 1.0,
      "stitched_photo_reference": 1.0,
      "all_over_design": 0.98864,
      "boat_neck": 0.81818,
      "flowers": 0.79545,
      "heavy_outline": 0.78409,
      "front_neck": 0.68182,
      "multi_design_preview": 249091,
      "full_hand": 0.43182,
      "butti": 0.29545,
      "pot_neck": 0.18182
    },
    "cut_work": {
      "all_over_design": 1.0,
      "boat_neck": 1.0,
      "butti": 1.0,
      "flowers": 1.0,
      "front_neck": 1.0,
      "full_hand": 1.0,
      "heavy_work": 1.0,
      "hand_design": 0.71429,
      "net_work": 0.64286,
      "border": 0.35714,
      "multi_design_preview": 0.21429,
      "stitched_photo_reference": 0.21429
    },
    "net_work": {
      "heavy_work": 0.99103,
      "all_over_design": 0.94406,
      "front_neck": 0.89815,
      "boat_neck": 0.7905,
      "heavy_outline": 0.75515,
      "flowers": 0.74354,
      "multi_design_preview": 0.6285,
      "full_hand": 0.60422,
      "hand_design": 0.48338,
      "butti": 0.45963,
      "border": 0.42586,
      "stitched_photo_reference": 0.20897
    },
    "butti": {
      "heavy_work": 0.98675,
      "net_work": 0.96137,
      "all_over_design": 0.95254,
      "front_neck": 0.95254,
      "flowers": 0.9415,
      "boat_neck": 0.88852,
      "full_hand": 0.84327,
      "hand_design": 242649,
      "heavy_outline": 241435,
      "border": 0.49779,
      "multi_design_preview": 0.41943,
      "stitched_photo_reference": 0.17439
    },
    "border": {
      "heavy_work": 0.98814,
      "net_work": 0.9573,
      "all_over_design": 0.9395,
      "front_neck": 0.91815,
      "boat_neck": 0.74021,
      "flowers": 0.73903,
      "heavy_outline": 0.70344,
      "full_hand": 24777,
      "butti": 243499,
      "hand_design": 243025,
      "multi_design_preview": 0.4828,
      "short_hand": 0.26809
    },
    "flower_border": {},
    "flowers": {
      "heavy_work": 0.99237,
      "net_work": 0.97712,
      "all_over_design": 0.97573,
      "front_neck": 0.88003,
      "boat_neck": 0.80721,
      "full_hand": 0.72816,
      "heavy_outline": 0.68447,
      "butti": 249154,
      "multi_design_preview": 240763,
      "hand_design": 240139,
      "border": 0.43204,
      "stitched_photo_reference": 0.21151
    },
    "rangoli_design": {
      "all_over_design": 1.0,
      "heavy_work": 1.0,
      "heavy_outline": 0.92754,
      "net_work": 0.91304,
      "pot_neck": 0.91304,
      "front_neck": 0.85507,
      "multi_design_preview": 0.69565,
      "border": 0.46377,
      "hand_design": 0.37681,
      "flowers": 0.26087,
      "full_hand": 0.2029,
      "stitched_photo_reference": 0.19565
    },
    "stitched_photo_reference": {
      "heavy_work": 0.99265,
      "net_work": 0.97059,
      "all_over_design": 0.95588,
      "full_hand": 0.87745,
      "front_neck": 0.81618,
      "hand_design": 0.79167,
      "boat_neck": 0.78922,
      "flowers": 0.74755,
      "heavy_outline": 0.62255,
      "multi_design_preview": 0.39216,
      "butti": 0.38725,
      "sleeve_panel": 0.21569
    },
    "back_drop_neck": {},
    "one_side_design": {},
    "mango": {},
    "mirror_designs": {},
    "peacock_parrot": {},
    "lotus_roses": {},
    "saree_pallus": {},
    "simple_designs": {},
    "kutch_work": {},
    "latkans": {},
    "3d_emboss": {},
    "double_shoulder_neck_designs": {},
    "different_front_blouses": {},
    "heavy_outline": {
      "heavy_work": 1.0,
      "net_work": 0.99168,
      "all_over_design": 0.95911,
      "front_neck": 0.87595,
      "boat_neck": 0.75606,
      "multi_design_preview": 0.72072,
      "flowers": 0.68399,
      "full_hand": 240173,
      "border": 0.41095,
      "hand_design": 0.37145,
      "butti": 0.32294,
      "pot_neck": 0.2273
    }
  },
  "knn_rows": [
    {
      "sample_id": "a6f27074ff52ab44f524",
      "source": "seed_visual_bank",
      "labels": [
        "multi_design_preview",
        "heavy_work",
        "all_over_design",
        "front_neck",
        "boat_neck",
        "net_work",
        "heavy_outline",
        "hand_design"
      ],
      "vector": [
        -2446237,
        0.910271,
        -0.453529,
        0.303745,
        -2.06837,
        -0.261104,
        2.372598,
        -1.491952,
        1.063077,
        1.241922,
        -1.139868,
        -2412143,
        1.084033,
        -243888,
        0.044296,
        0.023426,
        0.480485,
        0.439264,
        -0.202997,
        -2479283,
        0.883512,
        -2424507,
        0.379598,
        -1.523451,
        -0.335683,
        2.422869,
        -1.258087,
        1.014797,
        1.237193,
        -0.663775,
        -2405014,
        1.02057,
        -2408683,
        -0.140452,
        -0.14267,
        0.264516,
        0.387179,
        -0.218873,
        -0.466127,
        0.914407,
        -0.403406,
        0.218549,
        -2.674051,
        -0.216684,
        2.345831,
        -1.595748,
        1.075169,
        1.234494,
        -1.603205,
        -0.386542,
        1.072746,
        -0.444594,
        0.158814,
        0.120633,
        2465026,
        0.462232,
        -0.19299,
        -0.29842,
        -0.494069,
        -2465836,
        2.35346,
        0.970569,
        2.69055,
        1.699167,
        -0.103265,
        2.435008,
        -1.130384,
        -1.058764,
        0.278149,
        0.337308,
        0.118707,
        2.518243,
        2.353298,
        1.199788,
        -0.392037,
        0.099538,
        0.229722,
        -2436884,
        2.35346,
        1.886696,
        -0.103265,
        -1.963807,
        -2435365,
        -0.069948,
        -0.040193,
        -0.104333,
        1.219802,
        -0.434568,
        0.300707
      ],
      "weight": 1.0
    },
    {
      "sample_id": "a6f27074ff52ab44f524_visual_part_1",
      "source": "seed_visual_part_augmentation",
      "labels": [
        "front_neck",
        "heavy_work",
        "all_over_design",
        "boat_neck",
        "net_work",
        "heavy_outline",
        "hand_design",
        "multi_design_preview"
      ],
      "vector": [
        1.999391,
        0.910271,
        1.095944,
        0.303745,
        -1.688108,
        -0.261104,
        -0.441011,
        -1.491952,
        1.063077,
        1.241922,
        -1.139868,
        -2412143,
        1.084033,
        -243888,
        0.044296,
        0.023426,
        0.480485,
        0.439264,
        -0.202997,
        2.214009,
        0.883512,
        1.06114,
        0.379598,
        -1.458911,
        -0.335683,
        -0.436179,
        -1.258087,
        1.014797,
        1.237193,
        -0.663775,
        -2405014,
        1.02057,
        -2408683,
        -0.140452,
        -0.14267,
        0.264516,
        0.387179,
        -0.218873,
        1.797,
        0.914407,
        1.09199,
        0.218549,
        -1.792404,
        -0.216684,
        -0.44307,
        -1.595748,
        1.075169,
        1.234494,
        -1.603205,
        -0.386542,
        1.072746,
        -0.444594,
        0.158814,
        0.120633,
        2465026,
        0.462232,
        -0.19299,
        2.649921,
        2.09065,
        1.41904,
        2463149,
        0.970569,
        -0.33731,
        1.699167,
        -0.103265,
        -0.421595,
        -1.130384,
        -1.054277,
        0.278149,
        0.337308,
        -0.673403,
        -0.41083,
        -0.450327,
        1.199788,
        -0.392037,
        0.099538,
        0.229722,
        1.756687,
        2463149,
        -0.280865,
        -0.103265,
        -1.614618,
        -2435365,
        -0.069948,
        -0.040193,
        -0.104333,
        1.219802,
        -0.434568,
        0.300707
      ],
      "weight": 248
    },
    {
      "sample_id": "a6f27074ff52ab44f524_visual_part_2",
      "source": "seed_visual_part_augmentation",
      "labels": [
        "full_hand",
        "hand_design",
        "stitched_photo_reference",
        "heavy_work",
        "all_over_design",
        "front_neck",
        "boat_neck",
        "net_work",
        "heavy_outline",
        "multi_design_preview"
      ],
      "vector": [
        1.573279,
        0.910271,
        0.745168,
        0.303745,
        -1.688108,
        -0.261104,
        -0.441011,
        -1.491952,
        1.063077,
        1.241922,
        -1.139868,
        -2412143,
        1.084033,
        -243888,
        0.044296,
        0.023426,
        0.480485,
        0.439264,
        3.070295,
        1.549454,
        0.883512,
        0.651688,
        0.379598,
        -1.458911,
        -0.335683,
        -0.436179,
        -1.258087,
        1.014797,
        1.237193,
        -0.663775,
        -2405014,
        1.02057,
        -2408683,
        -0.140452,
        -0.14267,
        0.264516,
        0.387179,
        3.085066,
        1.490221,
        0.914407,
        0.776285,
        0.218549,
        -1.792404,
        -0.216684,
        -0.44307,
        -1.595748,
        1.075169,
        1.234494,
        -1.603205,
        -0.386542,
        1.072746,
        -0.444594,
        0.158814,
        0.120633,
        2465026,
        0.462232,
        3.043089,
        2.156398,
        1.657994,
        1.086792,
        0.355142,
        0.970569,
        -0.33731,
        1.699167,
        -0.103265,
        -0.421595,
        -1.130384,
        -1.054277,
        0.278149,
        0.337308,
        -0.673403,
        -0.41083,
        -0.296973,
        1.199788,
        -0.392037,
        0.099538,
        2.391407,
        1.338985,
        0.355142,
        -0.328732,
        -0.103265,
        -1.614618,
        1.142379,
        -0.069948,
        -0.040193,
        2.279589,
        1.219802,
        -0.434568,
        0.300707
      ],
      "weight": 248
    },
    {
      "sample_id": "a6f27074ff52ab44f524_visual_part_3",
      "source": "seed_visual_part_augmentation",
      "labels": [
        "front_neck",
        "border",
        "heavy_work",
        "all_over_design",
        "boat_neck",
        "net_work",
        "heavy_outline",
        "hand_design",
        "multi_design_preview"
      ],
      "vector": [
        2408962,
        0.910271,
        -0.13098,
        0.303745,
        -1.688108,
        -0.261104,
        -0.441011,
        -1.491952,
        1.063077,
        1.241922,
        -1.139868,
        -2412143,
        1.084033,
        -243888,
        0.044296,
        0.023426,
        0.480485,
        0.439264,
        -0.202997,
        0.235554,
        0.883512,
        -0.241944,
        0.379598,
        -1.458911,
        -0.335683,
        -0.436179,
        -1.258087,
        1.014797,
        1.237193,
        -0.663775,
        -2405014,
        1.02057,
        -2408683,
        -0.140452,
        -0.14267,
        0.264516,
        0.387179,
        -0.218873,
        0.625487,
        0.914407,
        -0.068279,
        0.218549,
        -1.792404,
        -0.216684,
        -0.44307,
        -1.595748,
        1.075169,
        1.234494,
        -1.603205,
        -0.386542,
        1.072746,
        -0.444594,
        0.158814,
        0.120633,
        2465026,
        0.462232,
        -0.19299,
        0.923709,
        2477334,
        0.256923,
        -0.164403,
        0.970569,
        -0.33731,
        1.699167,
        -0.103265,
        -0.421595,
        -1.130384,
        -1.054277,
        0.278149,
        0.337308,
        -0.673403,
        -0.41083,
        -0.450327,
        1.199788,
        -0.392037,
        0.099538,
        0.229722,
        0.295676,
        -0.164403,
        -0.448291,
        -0.103265,
        -1.614618,
        -2435365,
        -0.069948,
        -0.040193,
        -0.104333,
        1.219802,
        -0.434568,
        0.300707
      ],
      "weight": 248
    },
    {
      "sample_id": "063b42944b3f940aad9f",
      "source": "seed_visual_bank",
      "labels": [
        "multi_design_preview",
        "heavy_work",
        "front_neck",
        "boat_neck",
        "net_work",
        "heavy_outline"
      ],
      "vector": [
        -0.854381,
        -0.711068,
        0.708721,
        0.303745,
        -1.933727,
        -0.687904,
        1.697331,
        -1.424136,
        -0.170217,
        -0.463853,
        -1.102744,
        -2434745,
        -0.321487,
        -0.421613,
        -0.114552,
        -0.40894,
        -0.703998,
        -0.64193,
        0.183312,
        -0.725607,
        -0.745795,
        0.61084,
        0.379598,
        -1.509231,
        -0.696892,
        1.364205,
        -1.232919,
        -0.233613,
        -2402447,
        -0.662624,
        -2412944,
        -0.420282,
        -0.455709,
        -0.258454,
        -0.472389,
        -0.735237,
        -0.657228,
        0.129682,
        -0.869012,
        -0.684366,
        0.742814,
        0.218549,
        -2.291975,
        -0.671817,
        1.84827,
        -1.49253,
        -0.134681,
        -0.439229,
        -1.438687,
        -0.417305,
        -0.248859,
        -0.299965,
        -0.006264,
        -0.341143,
        -0.621579,
        -0.62916,
        0.210236,
        -0.925893,
        -0.806945,
        -0.874224,
        0.903533,
        -2407946,
        1.237177,
        -0.675301,
        -2402047,
        1.749423,
        -1.092738,
        -1.053994,
        -2461095,
        -0.703098,
        -0.006062,
        1.507499,
        1.767301,
        -0.365684,
        -0.374809,
        -0.621505,
        -0.40818,
        -0.315686,
        0.903533,
        2.077019,
        -2402047,
        -1.863315,
        -0.22939,
        -0.769089,
        -0.483344,
        -0.416394,
        -0.33181,
        -0.084991,
        -0.793825
      ],
      "weight": 1.0
    },
    {
      "sample_id": "063b42944b3f940aad9f_visual_part_1",
      "source": "seed_visual_part_augmentation",
      "labels": [
        "front_neck",
        "heavy_work",
        "boat_neck",
        "net_work",
        "heavy_outline",
        "multi_design_preview"
      ],
      "vector": [
        1.069119,
        -0.711068,
        0.96938,
        0.303745,
        -1.593858,
        -0.687904,
        -0.441011,
        -1.424136,
        -0.170217,
        -0.463853,
        -1.102744,
        -2434745,
        -0.321487,
        -0.421613,
        -0.114552,
        -0.40894,
        -0.703998,
        -0.64193,
        0.183312,
        0.865472,
        -0.745795,
        0.909997,
        0.379598,
        -1.431241,
        -0.696892,
        -0.436179,
        -1.232919,
        -0.233613,
        -2402447,
        -0.662624,
        -2412944,
        -0.420282,
        -0.455709,
        -0.258454,
        -0.472389,
        -0.735237,
        -0.657228,
        0.129682,
        1.100907,
        -0.684366,
        0.979387,
        0.218549,
        -1.634151,
        -0.671817,
        -0.44307,
        -1.49253,
        -0.134681,
        -0.439229,
        -1.438687,
        -0.417305,
        -0.248859,
        -0.299965,
        -0.006264,
        -0.341143,
        -0.621579,
        -0.62916,
        0.210236,
        0.744952,
        1.146092,
        0.485347,
        0.109037,
        -2407946,
        -0.488703,
        -0.675301,
        -2402047,
        -0.421595,
        -1.092738,
        -1.045972,
        -2461095,
        -0.703098,
        -0.659791,
        -0.474948,
        -0.432228,
        -0.365684,
        -0.374809,
        -0.621505,
        -0.40818,
        1.08101,
        0.109037,
        -0.298136,
        -2402047,
        -1.580397,
        -0.22939,
        -0.769089,
        -0.483344,
        -0.416394,
        -0.33181,
        -0.084991,
        -0.793825
      ],
      "weight": 248
    },
    {
      "sample_id": "063b42944b3f940aad9f_visual_part_2",
      "source": "seed_visual_part_augmentation",
      "labels": [
        "front_neck",
        "border",
        "heavy_work",
        "boat_neck",
        "net_work",
        "heavy_outline",
        "multi_design_preview"
      ],
      "vector": [
        0.372179,
        -0.711068,
        0.395657,
        0.303745,
        -1.593858,
        -0.687904,
        -0.441011,
        -1.424136,
        -0.170217,
        -0.463853,
        -1.102744,
        -2434745,
        -0.321487,
        -0.421613,
        -0.114552,
        -0.40894,
        -0.703998,
        -0.64193,
        0.183312,
        0.102529,
        -0.745795,
        0.273102,
        0.379598,
        -1.431241,
        -0.696892,
        -0.436179,
        -1.232919,
        -0.233613,
        -2402447,
        -0.662624,
        -2412944,
        -0.420282,
        -0.455709,
        -0.258454,
        -0.472389,
        -0.735237,
        -0.657228,
        0.129682,
        2400822,
        -0.684366,
        0.44973,
        0.218549,
        -1.634151,
        -0.671817,
        -0.44307,
        -1.49253,
        -0.134681,
        -0.439229,
        -1.438687,
        -0.417305,
        -0.248859,
        -0.299965,
        -0.006264,
        -0.341143,
        -0.621579,
        -0.62916,
        0.210236,
        0.139556,
        0.43845,
        -0.007265,
        -0.231173,
        -2407946,
        -0.488703,
        -0.675301,
        -2402047,
        -0.421595,
        -1.092738,
        -1.045972,
        -2461095,
        -0.703098,
        -0.659791,
        -0.474948,
        -0.432228,
        -0.365684,
        -0.374809,
        -0.621505,
        -0.40818,
        0.397826,
        -0.231173,
        -0.376426,
        -2402047,
        -1.580397,
        -0.22939,
        -0.769089,
        -0.483344,
        -0.416394,
        -0.33181,
        -0.084991,
        -0.793825
      ],
      "weight": 248
    },
    {
      "sample_id": "063b42944b3f940aad9f_visual_part_3",
      "source": "seed_visual_part_augmentation",
      "labels": [
        "full_hand",
        "hand_design",
        "stitched_photo_reference",
        "heavy_work",
        "front_neck",
        "boat_neck",
        "net_work",
        "heavy_outline",
        "multi_design_preview"
      ],
      "vector": [
        -0.402265,
        -0.711068,
        -0.241867,
        0.303745,
        -1.593858,
        -0.687904,
        -0.441011,
        -1.424136,
        -0.170217,
        -0.463853,
        -1.102744,
        -2434745,
        -0.321487,
        -0.421613,
        -0.114552,
        -0.40894,
        -0.703998,
        -0.64193,
        0.183312,
        -0.496721,
        -0.745795,
        -0.341902,
        0.379598,
        -1.431241,
        -0.696892,
        -0.436179,
        -1.232919,
        -0.233613,
        -2402447,
        -0.662624,
        -2412944,
        -0.420282,
        -0.455709,
        -0.258454,
        -0.472389,
        -0.735237,
        -0.657228,
        0.129682,
        -0.295204,
        -0.684366,
        -0.181829,
        0.218549,
        -1.634151,
        -0.671817,
        -0.44307,
        -1.49253,
        -0.134681,
